{"sizes":[225,112,2],"layers":[{"0":{},"1":{},"2":{},"3":{},"4":{},"5":{},"6":{},"7":{},"8":{},"9":{},"10":{},"11":{},"12":{},"13":{},"14":{},"15":{},"16":{},"17":{},"18":{},"19":{},"20":{},"21":{},"22":{},"23":{},"24":{},"25":{},"26":{},"27":{},"28":{},"29":{},"30":{},"31":{},"32":{},"33":{},"34":{},"35":{},"36":{},"37":{},"38":{},"39":{},"40":{},"41":{},"42":{},"43":{},"44":{},"45":{},"46":{},"47":{},"48":{},"49":{},"50":{},"51":{},"52":{},"53":{},"54":{},"55":{},"56":{},"57":{},"58":{},"59":{},"60":{},"61":{},"62":{},"63":{},"64":{},"65":{},"66":{},"67":{},"68":{},"69":{},"70":{},"71":{},"72":{},"73":{},"74":{},"75":{},"76":{},"77":{},"78":{},"79":{},"80":{},"81":{},"82":{},"83":{},"84":{},"85":{},"86":{},"87":{},"88":{},"89":{},"90":{},"91":{},"92":{},"93":{},"94":{},"95":{},"96":{},"97":{},"98":{},"99":{},"100":{},"101":{},"102":{},"103":{},"104":{},"105":{},"106":{},"107":{},"108":{},"109":{},"110":{},"111":{},"112":{},"113":{},"114":{},"115":{},"116":{},"117":{},"118":{},"119":{},"120":{},"121":{},"122":{},"123":{},"124":{},"125":{},"126":{},"127":{},"128":{},"129":{},"130":{},"131":{},"132":{},"133":{},"134":{},"135":{},"136":{},"137":{},"138":{},"139":{},"140":{},"141":{},"142":{},"143":{},"144":{},"145":{},"146":{},"147":{},"148":{},"149":{},"150":{},"151":{},"152":{},"153":{},"154":{},"155":{},"156":{},"157":{},"158":{},"159":{},"160":{},"161":{},"162":{},"163":{},"164":{},"165":{},"166":{},"167":{},"168":{},"169":{},"170":{},"171":{},"172":{},"173":{},"174":{},"175":{},"176":{},"177":{},"178":{},"179":{},"180":{},"181":{},"182":{},"183":{},"184":{},"185":{},"186":{},"187":{},"188":{},"189":{},"190":{},"191":{},"192":{},"193":{},"194":{},"195":{},"196":{},"197":{},"198":{},"199":{},"200":{},"201":{},"202":{},"203":{},"204":{},"205":{},"206":{},"207":{},"208":{},"209":{},"210":{},"211":{},"212":{},"213":{},"214":{},"215":{},"216":{},"217":{},"218":{},"219":{},"220":{},"221":{},"222":{},"223":{},"224":{}},{"0":{"bias":-0.08908741176128387,"weights":{"0":0.009395330213010311,"1":0.06374124437570572,"2":-0.12873220443725586,"3":-0.032592110335826874,"4":-0.027259770780801773,"5":0.18723024427890778,"6":-0.13671503961086273,"7":-0.16743208467960358,"8":0.08365285396575928,"9":-0.11585719138383865,"10":-0.06378012150526047,"11":0.14524105191230774,"12":-0.11547042429447174,"13":0.010017653927206993,"14":-0.07883910834789276,"15":0.020066257566213608,"16":-0.12966789305210114,"17":0.10411841422319412,"18":0.03013627417385578,"19":0.03331989049911499,"20":-0.05781176686286926,"21":-0.043719880282878876,"22":0.025302967056632042,"23":-0.037242382764816284,"24":0.0924772098660469,"25":0.14237269759178162,"26":0.16535499691963196,"27":-0.14865128695964813,"28":0.09066177904605865,"29":-0.11965329200029373,"30":-0.005611135624349117,"31":0.1987942010164261,"32":0.1678788810968399,"33":0.09342879056930542,"34":-0.07636572420597076,"35":-0.1478528529405594,"36":0.19158326089382172,"37":0.12700031697750092,"38":0.017852110788226128,"39":0.11998423933982849,"40":0.08314846456050873,"41":0.045990679413080215,"42":0.17394641041755676,"43":0.029648346826434135,"44":-0.1192285418510437,"45":-0.10732518881559372,"46":0.1382499635219574,"47":0.16828405857086182,"48":0.08971771597862244,"49":-0.1928553581237793,"50":-0.09189904481172562,"51":-0.03240252658724785,"52":0.011324524879455566,"53":-0.09435269981622696,"54":-0.12387002259492874,"55":-0.051176104694604874,"56":0.08110284805297852,"57":0.10211293399333954,"58":-0.01785006932914257,"59":0.1656503826379776,"60":0.12627975642681122,"61":-0.06590946018695831,"62":-0.1313939243555069,"63":-0.1334851235151291,"64":0.02837446704506874,"65":-0.07870934158563614,"66":0.05464271456003189,"67":0.20071135461330414,"68":-0.09931313991546631,"69":-0.015077788382768631,"70":-0.021010830998420715,"71":-0.10544446855783463,"72":-0.06944885104894638,"73":0.06212291494011879,"74":0.04456210881471634,"75":-0.01740797609090805,"76":0.0009670464205555618,"77":-0.12555594742298126,"78":0.10222478210926056,"79":-0.005382472183555365,"80":-0.08654483407735825,"81":-0.01937686651945114,"82":-0.18446148931980133,"83":-0.05723689869046211,"84":0.1993873119354248,"85":0.017973076552152634,"86":-0.013829333707690239,"87":-0.055638544261455536,"88":-0.009563429281115532,"89":0.10876674950122833,"90":-0.16912919282913208,"91":-0.10265279561281204,"92":-0.1441509872674942,"93":-0.048475489020347595,"94":-0.025515327230095863,"95":-0.19799688458442688,"96":0.0266694538295269,"97":-0.0013333692913874984,"98":0.10128165781497955,"99":-0.03728543594479561,"100":-0.19350464642047882,"101":0.1814630776643753,"102":-0.12247055023908615,"103":0.0957864448428154,"104":0.05412751063704491,"105":0.12422212958335876,"106":-0.011459500528872013,"107":-0.18018926680088043,"108":-0.016482466831803322,"109":-0.09116329252719879,"110":-0.1604139804840088,"111":-0.014802218414843082,"112":0.19250892102718353,"113":0.06293853372335434,"114":-0.12003007531166077,"115":0.1512869894504547,"116":0.02314571663737297,"117":-0.01232713833451271,"118":-0.10119424760341644,"119":0.0574607327580452,"120":0.12388435751199722,"121":-0.07277315855026245,"122":-0.0784570723772049,"123":0.07326816767454147,"124":0.1294109970331192,"125":-0.11164969205856323,"126":-0.07690053433179855,"127":-0.008529402315616608,"128":0.06030368432402611,"129":-0.07810657471418381,"130":-0.06393308937549591,"131":0.17590394616127014,"132":-0.01441064290702343,"133":0.15225526690483093,"134":0.17801916599273682,"135":-0.04200618341565132,"136":-0.0012942147441208363,"137":0.06812413781881332,"138":0.06278548389673233,"139":-0.10965614020824432,"140":-0.17451396584510803,"141":0.14800195395946503,"142":0.008491579443216324,"143":-0.10739348828792572,"144":0.1357971578836441,"145":0.18808132410049438,"146":-0.1151682585477829,"147":-0.1695474088191986,"148":-0.1322418749332428,"149":0.11159200221300125,"150":0.11927171796560287,"151":-0.1735144853591919,"152":-0.1514672338962555,"153":-0.074574775993824,"154":0.18653519451618195,"155":0.022891873493790627,"156":0.05604252964258194,"157":-0.09829826653003693,"158":-0.15537984669208527,"159":-0.10286100953817368,"160":0.15248021483421326,"161":-0.0977189764380455,"162":-0.18932904303073883,"163":0.1653401106595993,"164":0.08065110445022583,"165":-0.033130016177892685,"166":0.0687498152256012,"167":-0.09503499418497086,"168":-0.1482466757297516,"169":-0.1134205088019371,"170":-0.05492760241031647,"171":0.05899234488606453,"172":0.17726409435272217,"173":0.0751769170165062,"174":-0.0632726326584816,"175":0.11485852301120758,"176":0.03395324945449829,"177":0.11907535791397095,"178":-0.0674564316868782,"179":0.04409761354327202,"180":0.07657415419816971,"181":-0.060471855103969574,"182":0.07798639684915543,"183":-0.10834552347660065,"184":0.09369894862174988,"185":-0.13324181735515594,"186":0.12379290163516998,"187":0.16498740017414093,"188":0.17975403368473053,"189":-0.05442579835653305,"190":-0.08408423513174057,"191":0.13006266951560974,"192":-0.18666383624076843,"193":0.07071082293987274,"194":-0.19733239710330963,"195":0.08170130848884583,"196":-0.008832037448883057,"197":-0.03829280659556389,"198":0.020784642547369003,"199":0.05431796610355377,"200":0.11815480887889862,"201":0.0626370906829834,"202":0.03260311856865883,"203":0.001700960798189044,"204":-0.05205729976296425,"205":-0.11776867508888245,"206":0.17990277707576752,"207":0.07460584491491318,"208":-0.03447476401925087,"209":0.029341189190745354,"210":-0.05401846766471863,"211":0.19764505326747894,"212":0.0687321200966835,"213":-0.003052131272852421,"214":0.1555803418159485,"215":0.006498293951153755,"216":-0.11697119474411011,"217":0.0287006925791502,"218":0.06006975099444389,"219":0.007058939430862665,"220":0.0023674792610108852,"221":0.1194232851266861,"222":0.08172187954187393,"223":-0.024599455296993256,"224":0.13135294616222382}},"1":{"bias":0.13741753995418549,"weights":{"0":-0.11400024592876434,"1":-0.10759449750185013,"2":0.08460015058517456,"3":0.05811992287635803,"4":0.03842895105481148,"5":0.02243240922689438,"6":-0.09504445642232895,"7":0.1531500369310379,"8":-0.11644932627677917,"9":-0.13725289702415466,"10":-0.11576852202415466,"11":0.05344442278146744,"12":0.0948072001338005,"13":-0.07876547425985336,"14":-0.10672274976968765,"15":0.09575089067220688,"16":0.19467513263225555,"17":-0.15769337117671967,"18":0.0151769844815135,"19":0.04367580637335777,"20":-0.1795581728219986,"21":0.11248413473367691,"22":-0.03863932192325592,"23":-0.1922835111618042,"24":0.1537044793367386,"25":-0.1041659414768219,"26":0.10894818603992462,"27":-0.00531957158818841,"28":0.049746233969926834,"29":-0.06963306665420532,"30":0.19061599671840668,"31":-0.13592851161956787,"32":0.1804647445678711,"33":-0.16293326020240784,"34":-0.17724618315696716,"35":-0.1308930218219757,"36":-0.022127864882349968,"37":0.17177967727184296,"38":0.13092075288295746,"39":0.029841627925634384,"40":-0.1404855102300644,"41":-0.1519155353307724,"42":-0.031161479651927948,"43":-0.0783325657248497,"44":0.029408344998955727,"45":-0.19090747833251953,"46":0.023555245250463486,"47":0.05517284944653511,"48":0.03771931305527687,"49":0.0029608956538140774,"50":-0.15564203262329102,"51":0.06643611937761307,"52":0.08941082656383514,"53":-0.1509428769350052,"54":0.13890428841114044,"55":-0.19818811118602753,"56":0.08998973667621613,"57":-0.06449013203382492,"58":-0.015195317566394806,"59":-0.04712728038430214,"60":-0.12306379526853561,"61":-0.046368349343538284,"62":-0.10528261959552765,"63":0.17573851346969604,"64":-0.15132229030132294,"65":-0.03500564768910408,"66":0.10491542518138885,"67":-0.019755126908421516,"68":0.11878739297389984,"69":-0.16827185451984406,"70":0.0638192817568779,"71":-0.10153303295373917,"72":0.07275863736867905,"73":-0.10244172811508179,"74":-0.17080384492874146,"75":-0.1801162213087082,"76":0.04040367528796196,"77":-0.12871995568275452,"78":-0.07832004129886627,"79":-0.02614639140665531,"80":0.02531660906970501,"81":0.07599743455648422,"82":-0.1791473925113678,"83":0.0884280651807785,"84":0.014547156170010567,"85":0.1166456937789917,"86":-0.12446176260709763,"87":-0.03774060308933258,"88":0.09664109349250793,"89":-0.047039590775966644,"90":0.05941321700811386,"91":0.13388223946094513,"92":0.004868943244218826,"93":-0.04037008434534073,"94":0.17956313490867615,"95":0.18447895348072052,"96":0.16688472032546997,"97":-0.1342606395483017,"98":0.17727886140346527,"99":-0.1714077591896057,"100":0.033792730420827866,"101":0.11181811988353729,"102":0.10172023624181747,"103":0.09031038731336594,"104":0.13571685552597046,"105":-0.1690797507762909,"106":0.11325954645872116,"107":-0.17373710870742798,"108":-0.08184496313333511,"109":-0.18979287147521973,"110":-0.131666898727417,"111":0.07417669147253036,"112":0.07688377797603607,"113":-0.011492806486785412,"114":0.18102328479290009,"115":-0.012546440586447716,"116":-0.11240822821855545,"117":-0.14166706800460815,"118":-0.13148710131645203,"119":-0.15477009117603302,"120":-0.18026985228061676,"121":-0.08624371141195297,"122":0.05043467506766319,"123":0.09874710440635681,"124":-0.13118557631969452,"125":0.18714089691638947,"126":-0.03307970613241196,"127":0.021442141383886337,"128":-0.02822653017938137,"129":-0.1700465977191925,"130":-0.17242403328418732,"131":0.03337465971708298,"132":0.01343609020113945,"133":0.15241722762584686,"134":-0.017790835350751877,"135":-0.12886855006217957,"136":-0.05307088419795036,"137":0.15182626247406006,"138":-0.0940597727894783,"139":-0.1173691675066948,"140":-0.15668565034866333,"141":0.17395439743995667,"142":-0.1429714560508728,"143":0.09010346978902817,"144":0.17619763314723969,"145":0.15335805714130402,"146":-0.17051845788955688,"147":0.011802734807133675,"148":-0.14868049323558807,"149":-0.19701607525348663,"150":0.08799227327108383,"151":-0.0025612402241677046,"152":0.18504324555397034,"153":-0.05508985370397568,"154":0.09290006756782532,"155":0.030621185898780823,"156":-0.1806233823299408,"157":0.1412172019481659,"158":-0.09614809602499008,"159":-0.04528979957103729,"160":0.0950961634516716,"161":-0.18218213319778442,"162":-0.14842195808887482,"163":0.13281771540641785,"164":-0.057732127606868744,"165":-0.14861208200454712,"166":0.15404926240444183,"167":-0.0669563040137291,"168":-0.05289573594927788,"169":0.07662792503833771,"170":0.09894189238548279,"171":0.011993788182735443,"172":0.001798484125174582,"173":0.10191089659929276,"174":0.005521021783351898,"175":0.04606034979224205,"176":-0.19175411760807037,"177":0.04488430172204971,"178":0.04324197769165039,"179":0.18936023116111755,"180":-0.14624451100826263,"181":0.08443902432918549,"182":-0.141831174492836,"183":0.014797575771808624,"184":0.1552751511335373,"185":-0.026257343590259552,"186":0.12615622580051422,"187":-0.11535302549600601,"188":0.09373091906309128,"189":0.11550450325012207,"190":-0.04731864854693413,"191":0.07394228130578995,"192":-0.1187320277094841,"193":-0.0016244460130110383,"194":0.060696978121995926,"195":0.09246890991926193,"196":0.06014617532491684,"197":-0.14001697301864624,"198":0.14711296558380127,"199":0.10107851773500443,"200":0.13784441351890564,"201":0.03506668284535408,"202":-0.1200885996222496,"203":-0.078087717294693,"204":-0.10447157919406891,"205":0.06830395758152008,"206":-0.18574954569339752,"207":0.19658347964286804,"208":0.17035356163978577,"209":-0.11265058070421219,"210":0.09328167140483856,"211":-0.1296951025724411,"212":-0.06747404485940933,"213":-0.040236182510852814,"214":-0.1815054714679718,"215":-0.06325501203536987,"216":0.19802510738372803,"217":-0.15032583475112915,"218":-0.1300676465034485,"219":-0.18334797024726868,"220":0.10388102382421494,"221":0.06813785433769226,"222":-0.06049398332834244,"223":0.18143907189369202,"224":-0.1603451371192932}},"2":{"bias":0.10503998398780823,"weights":{"0":-0.006333895493298769,"1":-0.17771008610725403,"2":-0.12508271634578705,"3":0.0988910049200058,"4":0.15201203525066376,"5":0.1908206343650818,"6":0.0933271199464798,"7":-0.026259271427989006,"8":-0.13274869322776794,"9":-0.18581904470920563,"10":-0.14148764312267303,"11":0.13940653204917908,"12":0.05919243395328522,"13":0.08843692392110825,"14":0.028280196711421013,"15":0.17208078503608704,"16":-0.06107339262962341,"17":-0.12333762645721436,"18":-0.14846403896808624,"19":0.016379576176404953,"20":0.027682267129421234,"21":-0.13815683126449585,"22":0.16925418376922607,"23":0.1114419475197792,"24":-0.17341560125350952,"25":-0.027396835386753082,"26":0.07306613028049469,"27":-0.14783455431461334,"28":0.15155141055583954,"29":-0.19202138483524323,"30":-0.08946792781352997,"31":-0.15739805996418,"32":0.12318418174982071,"33":0.0013893286231905222,"34":-0.13866278529167175,"35":-0.03257429599761963,"36":0.010155837051570415,"37":-0.10169488936662674,"38":0.13927684724330902,"39":0.04404657334089279,"40":0.13463880121707916,"41":-0.009180529974400997,"42":0.08856101334095001,"43":-0.05512334778904915,"44":0.08297854661941528,"45":0.026671193540096283,"46":0.05736739560961723,"47":0.09012893587350845,"48":-0.020079465582966805,"49":-0.199481800198555,"50":0.09647925943136215,"51":-0.17289146780967712,"52":0.10788623988628387,"53":0.025946026667952538,"54":0.176242396235466,"55":-0.15105891227722168,"56":-0.08538684993982315,"57":0.11342636495828629,"58":0.09249737113714218,"59":0.02986583299934864,"60":-0.08697951585054398,"61":-0.10219082981348038,"62":0.1488189548254013,"63":0.013946261256933212,"64":-0.1542307287454605,"65":-0.11183350533246994,"66":-0.012256241403520107,"67":-0.13017427921295166,"68":-0.14594948291778564,"69":-0.14908148348331451,"70":-0.04764900729060173,"71":-0.06212233006954193,"72":-0.07723434269428253,"73":0.17773571610450745,"74":-0.071421779692173,"75":0.1497586965560913,"76":0.09132157266139984,"77":-0.03247113525867462,"78":-0.10771546512842178,"79":0.17409861087799072,"80":0.1288410723209381,"81":0.04903058707714081,"82":-0.07339062541723251,"83":0.009553871117532253,"84":-0.11702270805835724,"85":-0.15591847896575928,"86":0.1876554936170578,"87":0.03449073061347008,"88":0.016688300296664238,"89":-0.15369565784931183,"90":0.0023278268054127693,"91":-0.043144989758729935,"92":-0.10652443766593933,"93":0.0052551706321537495,"94":0.07087814062833786,"95":0.16629871726036072,"96":-0.1973828226327896,"97":-0.016054894775152206,"98":0.014519702643156052,"99":-0.04172954335808754,"100":-0.029124027118086815,"101":0.04937893524765968,"102":-0.14903151988983154,"103":-0.0071061523631215096,"104":0.16824696958065033,"105":0.09168067574501038,"106":0.015779217705130577,"107":-0.0037130597047507763,"108":-0.10646071285009384,"109":0.1097426563501358,"110":0.16889439523220062,"111":-0.18388104438781738,"112":0.17053312063217163,"113":-0.17440274357795715,"114":-0.11105451732873917,"115":0.011042816564440727,"116":0.11118713766336441,"117":-0.1570417284965515,"118":0.06784636527299881,"119":0.012323198840022087,"120":0.06857550144195557,"121":0.033680759370326996,"122":0.07616479694843292,"123":-0.05474193021655083,"124":-0.15776818990707397,"125":-0.004594716243445873,"126":0.14927789568901062,"127":-0.11877100169658661,"128":0.08541030436754227,"129":-0.038495417684316635,"130":0.1175215020775795,"131":0.17207899689674377,"132":0.12127691507339478,"133":-0.033306773751974106,"134":-0.1423887461423874,"135":-0.18738482892513275,"136":-0.1483381688594818,"137":0.11947926878929138,"138":-0.01542492862790823,"139":0.16857904195785522,"140":0.033940162509679794,"141":-0.02588482014834881,"142":-0.0531807467341423,"143":-0.17705143988132477,"144":-0.05869344249367714,"145":0.005324265919625759,"146":-0.19032776355743408,"147":-0.17966513335704803,"148":-0.015138925984501839,"149":0.032028909772634506,"150":-0.1793922483921051,"151":0.018405688926577568,"152":-0.1591532677412033,"153":0.022295843809843063,"154":0.09182748943567276,"155":-0.05344812199473381,"156":-0.09622835367918015,"157":-0.08268573880195618,"158":0.10995128005743027,"159":0.199705109000206,"160":0.0610719658434391,"161":-0.016817601397633553,"162":0.045022547245025635,"163":-0.014295211993157864,"164":-0.0691043958067894,"165":-0.10878562182188034,"166":-0.1582731455564499,"167":0.15782026946544647,"168":0.025653408840298653,"169":-0.018179679289460182,"170":0.1269908845424652,"171":0.17179325222969055,"172":-0.06256143003702164,"173":-0.02663336507976055,"174":0.045327138155698776,"175":-0.20884640514850616,"176":0.0918278768658638,"177":0.17010071873664856,"178":0.15880654752254486,"179":-0.13612164556980133,"180":-0.06556789577007294,"181":0.02838868834078312,"182":0.022091688588261604,"183":0.011395275592803955,"184":0.027118247002363205,"185":0.032581280916929245,"186":-0.16816797852516174,"187":0.17853574454784393,"188":0.12615516781806946,"189":-0.12244829535484314,"190":0.03737672418355942,"191":0.03980337083339691,"192":-0.1504536122083664,"193":-0.019644834101200104,"194":-0.10356124490499496,"195":-0.058949172496795654,"196":0.12511080503463745,"197":0.03958101570606232,"198":-0.08595509827136993,"199":0.1654689460992813,"200":-0.18670593202114105,"201":-0.07953618466854095,"202":-0.06691603362560272,"203":0.1958809792995453,"204":0.11698777228593826,"205":0.043548937886953354,"206":0.00404728390276432,"207":-0.029389407485723495,"208":0.010063953697681427,"209":0.11599970608949661,"210":-0.05614886060357094,"211":0.13813553750514984,"212":0.07759066671133041,"213":0.12142317742109299,"214":-0.026552816852927208,"215":-0.16954204440116882,"216":0.03824872523546219,"217":0.07529140263795853,"218":0.17216366529464722,"219":-0.18713296949863434,"220":0.0315622054040432,"221":0.10657311975955963,"222":0.09076232463121414,"223":-0.03185839205980301,"224":0.02666865661740303}},"3":{"bias":0.06904298067092896,"weights":{"0":0.06738793104887009,"1":0.08015014976263046,"2":0.08652180433273315,"3":0.025481203570961952,"4":-0.1312035471200943,"5":0.025119837373495102,"6":0.19801388680934906,"7":-0.11926582455635071,"8":0.10273614525794983,"9":0.040367670357227325,"10":0.1558663249015808,"11":-0.10288537293672562,"12":0.14249873161315918,"13":0.0749032124876976,"14":0.13789089024066925,"15":-0.15911339223384857,"16":0.12827840447425842,"17":-0.04032079130411148,"18":0.13080331683158875,"19":0.047519978135824203,"20":0.19504064321517944,"21":0.1738574355840683,"22":-0.193400576710701,"23":0.07999817281961441,"24":-0.06442543864250183,"25":-0.10033856332302094,"26":-0.1216638907790184,"27":0.14717668294906616,"28":0.07298441976308823,"29":0.17957285046577454,"30":-0.10207860916852951,"31":-0.1833488643169403,"32":0.035517673939466476,"33":-0.1065443679690361,"34":0.09039079397916794,"35":-0.19620975852012634,"36":0.15584956109523773,"37":0.13961003720760345,"38":0.00962847750633955,"39":0.018849091604351997,"40":-0.08690593391656876,"41":0.19671139121055603,"42":0.08515005558729172,"43":-0.14578688144683838,"44":-0.10454632341861725,"45":-0.06387440860271454,"46":-0.18156898021697998,"47":-0.05496612936258316,"48":0.018815038725733757,"49":0.0014701933832839131,"50":0.022960545495152473,"51":-0.1144387274980545,"52":0.12161894887685776,"53":0.1769607961177826,"54":0.13605579733848572,"55":0.007222391664981842,"56":0.06488189101219177,"57":0.1437062919139862,"58":-0.08567587286233902,"59":-0.19842354953289032,"60":-0.035215944051742554,"61":0.0003724053967744112,"62":-0.04042784869670868,"63":0.0925477147102356,"64":-0.019740447402000427,"65":0.17923174798488617,"66":-0.1431131511926651,"67":0.17753882706165314,"68":-0.14511695504188538,"69":0.008135718293488026,"70":-0.16391350328922272,"71":0.11119112372398376,"72":-0.19558358192443848,"73":0.13731218874454498,"74":-0.03468790277838707,"75":0.005530893802642822,"76":-0.07656871527433395,"77":-0.00663413479924202,"78":-0.0327976755797863,"79":0.1580587476491928,"80":-0.04142855852842331,"81":0.06574980914592743,"82":0.16883663833141327,"83":0.10843169689178467,"84":-0.002451554639264941,"85":-0.1164533719420433,"86":-0.0031224999111145735,"87":0.18411950767040253,"88":-0.010588180273771286,"89":-0.09516934305429459,"90":-0.11305918544530869,"91":0.006200455129146576,"92":-0.03369048237800598,"93":0.14918546378612518,"94":-0.18787787854671478,"95":0.07061953842639923,"96":-0.10792642831802368,"97":-0.001918506226502359,"98":-0.18989197909832,"99":-0.06795801222324371,"100":-0.18840819597244263,"101":-0.03352987766265869,"102":0.010753042995929718,"103":-0.1328735202550888,"104":-0.14791786670684814,"105":-0.0737077072262764,"106":-0.07273809611797333,"107":0.06632798165082932,"108":0.09127559512853622,"109":-0.11327461898326874,"110":-0.009143556468188763,"111":0.011096429079771042,"112":-0.11247827857732773,"113":0.04378760978579521,"114":0.08348920941352844,"115":0.10548871010541916,"116":0.14971144497394562,"117":0.057553473860025406,"118":0.047698505222797394,"119":0.1738741248846054,"120":0.021177195012569427,"121":-0.06062840297818184,"122":0.01669558696448803,"123":-0.0314147025346756,"124":-0.09140083938837051,"125":0.10655700415372849,"126":0.17313504219055176,"127":0.08627060800790787,"128":0.04938337951898575,"129":-0.0609615333378315,"130":-0.14156416058540344,"131":-0.18260443210601807,"132":0.018275003880262375,"133":-0.06088782101869583,"134":0.0781819075345993,"135":0.153534933924675,"136":0.008720532059669495,"137":-0.06550310552120209,"138":-0.19490237534046173,"139":-0.17896674573421478,"140":0.011008755303919315,"141":0.17248842120170593,"142":0.1297929435968399,"143":-0.01103883609175682,"144":-0.02083028294146061,"145":0.016507236286997795,"146":0.15820202231407166,"147":-0.017397992312908173,"148":-0.06638721376657486,"149":0.09763653576374054,"150":-0.03883759677410126,"151":-0.04190456494688988,"152":-0.14425648748874664,"153":-0.06662573665380478,"154":-0.13623547554016113,"155":0.029121967032551765,"156":-0.20427045226097107,"157":-0.17834888398647308,"158":0.02666020393371582,"159":0.18048663437366486,"160":-0.08170264959335327,"161":-0.16475076973438263,"162":0.1092895045876503,"163":0.016425998881459236,"164":-0.11406176537275314,"165":0.0601317472755909,"166":-0.12244638800621033,"167":-0.12748073041439056,"168":-0.0903807058930397,"169":0.1255486011505127,"170":-0.021770883351564407,"171":0.17230457067489624,"172":-0.11173409968614578,"173":-0.16214795410633087,"174":-0.12129367887973785,"175":-0.09942693263292313,"176":0.019166795536875725,"177":-0.12643449008464813,"178":-0.19121110439300537,"179":0.12201093882322311,"180":-0.10314493626356125,"181":-0.16249577701091766,"182":-0.19104108214378357,"183":0.1135796532034874,"184":-0.025355972349643707,"185":0.13487540185451508,"186":0.12330437451601028,"187":0.10808338224887848,"188":0.06280065327882767,"189":0.1901647299528122,"190":-0.07415086776018143,"191":0.031939707696437836,"192":0.06657254695892334,"193":0.002579963067546487,"194":0.08188188821077347,"195":-0.04628095403313637,"196":-0.05119001865386963,"197":0.02310074307024479,"198":0.11710310727357864,"199":0.04101671651005745,"200":0.17955592274665833,"201":-0.11703743785619736,"202":0.15524259209632874,"203":0.18819695711135864,"204":0.13092459738254547,"205":0.07309696823358536,"206":0.01913418434560299,"207":0.006871349643915892,"208":-0.04823978245258331,"209":0.12819582223892212,"210":0.05209841951727867,"211":0.12332648038864136,"212":-0.14889124035835266,"213":-0.049832697957754135,"214":-0.02019900269806385,"215":0.06232651323080063,"216":0.052058957517147064,"217":-0.007821345701813698,"218":-0.023233477026224136,"219":-0.018420051783323288,"220":0.17125625908374786,"221":0.14230142533779144,"222":0.023406874388456345,"223":-0.11122706532478333,"224":-0.04582091048359871}},"4":{"bias":-0.17849759757518768,"weights":{"0":0.0024489336647093296,"1":0.19495850801467896,"2":-0.05324362963438034,"3":-0.13568875193595886,"4":0.0006464460166171193,"5":0.06585302203893661,"6":0.05856364220380783,"7":-0.08236774057149887,"8":-0.16799692809581757,"9":0.004100268706679344,"10":-0.11050497740507126,"11":0.06610652804374695,"12":0.08514533191919327,"13":0.062321603298187256,"14":-0.10987085849046707,"15":-0.05320464447140694,"16":0.08439425379037857,"17":-0.06011869013309479,"18":0.1729847937822342,"19":0.11532304435968399,"20":-0.027423081919550896,"21":0.10918695479631424,"22":0.16706877946853638,"23":-0.002427467377856374,"24":-0.1887052059173584,"25":0.0702681913971901,"26":0.07086139172315598,"27":-0.1595543771982193,"28":-0.15722371637821198,"29":-0.04866226390004158,"30":0.051944296807050705,"31":-0.12806706130504608,"32":-0.12100102007389069,"33":-0.045873142778873444,"34":0.1283637285232544,"35":-0.16578099131584167,"36":-0.13527648150920868,"37":-0.11137022078037262,"38":-0.12267393618822098,"39":0.04654945060610771,"40":-0.13645388185977936,"41":-0.16244806349277496,"42":0.02129577286541462,"43":-0.18913567066192627,"44":0.17553122341632843,"45":0.19681763648986816,"46":0.04653914272785187,"47":-0.020494502037763596,"48":0.039251718670129776,"49":0.19497253000736237,"50":-0.020925698801875114,"51":-0.09363732486963272,"52":0.14009252190589905,"53":0.09296581894159317,"54":0.10530247539281845,"55":-0.11067554354667664,"56":0.0057015675120055676,"57":-0.18376359343528748,"58":-0.1436425894498825,"59":0.06976187229156494,"60":0.018400145694613457,"61":0.04473932832479477,"62":-0.012941581197082996,"63":-0.07052426785230637,"64":0.11012623459100723,"65":-0.13226968050003052,"66":-0.0792974978685379,"67":-0.18511007726192474,"68":-0.14578942954540253,"69":-0.1103571355342865,"70":-0.13247700035572052,"71":-0.07141443341970444,"72":0.1383264809846878,"73":0.14909544587135315,"74":0.19507698714733124,"75":-0.14904803037643433,"76":0.0843082070350647,"77":-0.20027180016040802,"78":0.18431055545806885,"79":-0.017359433695673943,"80":-0.1109829843044281,"81":0.1131938248872757,"82":0.17590349912643433,"83":-0.1773027628660202,"84":0.046759992837905884,"85":0.1828395128250122,"86":0.12351066619157791,"87":-0.1390959620475769,"88":0.07415986061096191,"89":-0.1785656362771988,"90":-0.08110824227333069,"91":-0.18597152829170227,"92":0.09567710012197495,"93":-0.05160927399992943,"94":0.18123802542686462,"95":-0.14585277438163757,"96":0.13703128695487976,"97":0.062199268490076065,"98":0.13407354056835175,"99":0.1638655662536621,"100":-0.12613891065120697,"101":-0.1579231172800064,"102":-0.11515334248542786,"103":-0.10104155540466309,"104":0.10404733568429947,"105":-0.126321479678154,"106":0.1931099146604538,"107":0.0335162952542305,"108":0.03973070904612541,"109":0.10188537836074829,"110":0.014933655969798565,"111":-0.1624254286289215,"112":-0.1406126171350479,"113":-0.09590090066194534,"114":-0.15619798004627228,"115":0.12339547276496887,"116":-0.027257978916168213,"117":-0.03556138277053833,"118":-0.023027723655104637,"119":-0.1199883371591568,"120":0.15723560750484467,"121":0.1719849705696106,"122":0.14606726169586182,"123":0.0828743651509285,"124":0.006837041117250919,"125":0.0871788039803505,"126":-0.06387093663215637,"127":0.1424301713705063,"128":0.16288235783576965,"129":-0.13184718787670135,"130":-0.18130353093147278,"131":0.10368747264146805,"132":-0.1467376947402954,"133":-0.026058457791805267,"134":0.1523873209953308,"135":0.026266342028975487,"136":0.035464655607938766,"137":-0.17131775617599487,"138":0.16310319304466248,"139":-0.07300262898206711,"140":-0.12594251334667206,"141":0.18305008113384247,"142":-0.01104128360748291,"143":0.16281713545322418,"144":0.031147411093115807,"145":0.1503150314092636,"146":-0.11051806807518005,"147":-0.041878554970026016,"148":-0.18801286816596985,"149":0.04267754405736923,"150":-0.03234834969043732,"151":0.02169334515929222,"152":0.19712954759597778,"153":-0.02648964710533619,"154":-0.030350539833307266,"155":0.17722007632255554,"156":0.18625979125499725,"157":0.08493754267692566,"158":-0.012850312516093254,"159":-0.1733125001192093,"160":0.138452410697937,"161":0.1852184385061264,"162":-0.1703050136566162,"163":-0.01696232333779335,"164":-0.0880577489733696,"165":0.10604209452867508,"166":0.18136455118656158,"167":0.12415258586406708,"168":-0.16737022995948792,"169":0.16476862132549286,"170":0.034561824053525925,"171":-0.19111379981040955,"172":-0.03269819915294647,"173":-0.12084197998046875,"174":0.19241128861904144,"175":-0.14120382070541382,"176":-0.11291423439979553,"177":0.019407300278544426,"178":-0.1496695727109909,"179":-0.12217046320438385,"180":-0.16919803619384766,"181":0.07438039779663086,"182":-0.04449702054262161,"183":0.16532035171985626,"184":0.18579649925231934,"185":0.12628173828125,"186":-0.11204909533262253,"187":0.1569320559501648,"188":-0.0582386776804924,"189":-0.08459331840276718,"190":-0.01648399978876114,"191":-0.07886126637458801,"192":-0.1022268757224083,"193":-0.14287270605564117,"194":-0.06601227074861526,"195":0.11689429730176926,"196":0.03466629981994629,"197":0.051938246935606,"198":0.091509610414505,"199":0.09945037961006165,"200":-0.17945389449596405,"201":0.14531156420707703,"202":0.05443870648741722,"203":-0.008341330103576183,"204":0.04861380532383919,"205":0.047879625111818314,"206":0.11279548704624176,"207":-0.1995570957660675,"208":0.17146658897399902,"209":0.029392123222351074,"210":0.022648140788078308,"211":0.18334659934043884,"212":0.03150882571935654,"213":0.16811183094978333,"214":0.17434604465961456,"215":0.001813627197407186,"216":0.006682010367512703,"217":0.08533881604671478,"218":0.12441372871398926,"219":-0.17279742658138275,"220":0.13447843492031097,"221":-0.18664981424808502,"222":-0.021745458245277405,"223":-0.13539794087409973,"224":-0.19564560055732727}},"5":{"bias":-0.07817119359970093,"weights":{"0":-0.02485383301973343,"1":0.12042826414108276,"2":0.16319672763347626,"3":0.16958612203598022,"4":-0.19397063553333282,"5":-0.17075586318969727,"6":0.0970122218132019,"7":0.14906442165374756,"8":-0.05350445583462715,"9":0.12602250277996063,"10":0.04183345288038254,"11":-0.011948909610509872,"12":-0.06394826620817184,"13":-0.16047386825084686,"14":0.12541192770004272,"15":-0.19717255234718323,"16":0.13573065400123596,"17":-0.08165499567985535,"18":-0.13957372307777405,"19":0.13590234518051147,"20":-0.05543438717722893,"21":0.08215729147195816,"22":-0.13043667376041412,"23":-0.04438963159918785,"24":-0.10247188806533813,"25":0.022531691938638687,"26":-0.16176901757717133,"27":0.044432297348976135,"28":0.10062533617019653,"29":-0.09643349051475525,"30":0.1914031207561493,"31":0.1133250892162323,"32":-0.12697452306747437,"33":0.07485777139663696,"34":0.17943578958511353,"35":-0.07436588406562805,"36":0.16386446356773376,"37":0.11061551421880722,"38":-0.007618376053869724,"39":-0.17622405290603638,"40":0.16507917642593384,"41":0.1449565440416336,"42":-0.06656186282634735,"43":0.01843324489891529,"44":-0.1041724756360054,"45":0.043603286147117615,"46":-0.07931361347436905,"47":-0.1656126230955124,"48":0.026727857068181038,"49":0.1866898089647293,"50":-0.18110445141792297,"51":0.19850225746631622,"52":0.17397062480449677,"53":-0.06741975992918015,"54":-0.07614415138959885,"55":-0.06279898434877396,"56":-0.11762763559818268,"57":-0.18081866204738617,"58":0.08416105806827545,"59":-0.16836068034172058,"60":-0.09826388955116272,"61":0.06691765785217285,"62":0.06883465498685837,"63":-0.11501753330230713,"64":-0.09092831611633301,"65":0.11971963196992874,"66":-0.019673822447657585,"67":-0.19004154205322266,"68":-0.046888094395399094,"69":-0.09850858151912689,"70":0.16629824042320251,"71":0.008157318457961082,"72":0.19823749363422394,"73":0.05720885843038559,"74":-0.04501708969473839,"75":0.13793712854385376,"76":0.07542929798364639,"77":-0.07437427341938019,"78":-0.12951378524303436,"79":-0.06599759310483932,"80":-0.04724903777241707,"81":-0.1784680038690567,"82":0.1909920871257782,"83":0.02225075289607048,"84":-0.10385893285274506,"85":0.13110892474651337,"86":0.09318678826093674,"87":0.0758037120103836,"88":0.10491494834423065,"89":0.06611751019954681,"90":-0.13225224614143372,"91":-0.12761804461479187,"92":0.02673053927719593,"93":-0.08499366044998169,"94":-0.08066535741090775,"95":-0.036654189229011536,"96":0.053103577345609665,"97":0.15536852180957794,"98":0.14181475341320038,"99":0.01641794666647911,"100":-0.08514362573623657,"101":0.009306544438004494,"102":-0.0014177466509863734,"103":0.008761841803789139,"104":-0.06058576703071594,"105":0.003844612278044224,"106":0.07529697567224503,"107":-0.08388926833868027,"108":-0.1222861111164093,"109":-0.07767926901578903,"110":-0.06154850125312805,"111":0.09140866249799728,"112":-0.1875607967376709,"113":0.030155453830957413,"114":0.040138036012649536,"115":-0.13324013352394104,"116":0.16783741116523743,"117":0.045635025948286057,"118":-0.10931325703859329,"119":-0.17703062295913696,"120":-0.15588149428367615,"121":0.18086451292037964,"122":0.08760923147201538,"123":0.106839120388031,"124":-0.009708569385111332,"125":0.0011499986285343766,"126":0.10868406295776367,"127":-0.12136708945035934,"128":-0.08729390799999237,"129":-0.13670609891414642,"130":-0.12492541968822479,"131":0.17975486814975739,"132":-0.04919286072254181,"133":0.16635024547576904,"134":-0.03875761479139328,"135":-0.020387839525938034,"136":0.020871000364422798,"137":-0.050337523221969604,"138":0.0435173474252224,"139":0.12310116738080978,"140":-0.17173431813716888,"141":-0.18739674985408783,"142":-0.009961630217730999,"143":-0.0904100239276886,"144":0.19514086842536926,"145":-0.20402751863002777,"146":0.18218931555747986,"147":-0.11960812658071518,"148":0.16896586120128632,"149":0.1558125615119934,"150":-0.0420670323073864,"151":-0.13656994700431824,"152":-0.09429160505533218,"153":-0.1184888556599617,"154":-0.11350492388010025,"155":0.15316936373710632,"156":-0.12377093732357025,"157":-0.1359843760728836,"158":0.08772367238998413,"159":-0.05674619600176811,"160":0.14879253506660461,"161":0.1587650179862976,"162":0.03023841790854931,"163":-0.17893382906913757,"164":-0.19587808847427368,"165":0.03179362416267395,"166":0.05483562499284744,"167":0.078497514128685,"168":-0.13512983918190002,"169":0.18478186428546906,"170":-0.14636607468128204,"171":0.009729831479489803,"172":-0.010738780722022057,"173":0.06152277812361717,"174":-0.10272721946239471,"175":0.05867137014865875,"176":0.11653246730566025,"177":0.09367533773183823,"178":-0.1306682825088501,"179":-0.034375861287117004,"180":0.13764885067939758,"181":-0.18424132466316223,"182":-0.12853392958641052,"183":0.13079984486103058,"184":-0.07878192514181137,"185":-0.010900171473622322,"186":0.06232354789972305,"187":-0.04601637274026871,"188":-0.19790194928646088,"189":-0.09831798076629639,"190":-0.15431718528270721,"191":-0.05585312843322754,"192":0.1879522204399109,"193":0.02553030103445053,"194":0.15316469967365265,"195":-0.06903523206710815,"196":-0.18899165093898773,"197":-0.17303965985774994,"198":0.16844157874584198,"199":-0.045880526304244995,"200":0.11612764745950699,"201":0.01478062104433775,"202":0.06318482756614685,"203":-0.09907162934541702,"204":-0.04761383309960365,"205":0.05411360412836075,"206":-0.09571950137615204,"207":0.1410602182149887,"208":-0.18893830478191376,"209":0.168069988489151,"210":0.009344597347080708,"211":0.08669885993003845,"212":0.10930981487035751,"213":-0.1255165934562683,"214":-0.127223402261734,"215":-0.15130190551280975,"216":-0.08357375115156174,"217":0.09908122569322586,"218":-0.015677427873015404,"219":0.18490591645240784,"220":-0.16342593729496002,"221":0.10012293606996536,"222":-0.09474474936723709,"223":-0.07129770517349243,"224":0.19158005714416504}},"6":{"bias":-0.20015959441661835,"weights":{"0":-0.1382085531949997,"1":-0.04838024452328682,"2":-0.10910627990961075,"3":0.16473844647407532,"4":0.060613226145505905,"5":0.1309172511100769,"6":-0.0068963500671088696,"7":-0.18507510423660278,"8":-0.06889690458774567,"9":0.12436091154813766,"10":-0.018166586756706238,"11":0.04184737801551819,"12":0.014686604030430317,"13":0.18941788375377655,"14":0.036427825689315796,"15":0.1918056756258011,"16":-0.13391250371932983,"17":-0.1233435720205307,"18":-0.06032665818929672,"19":-0.14630068838596344,"20":-0.07632016390562057,"21":-0.040061041712760925,"22":0.07781536877155304,"23":-0.08048593252897263,"24":0.12535978853702545,"25":-0.11501399427652359,"26":-0.16776971518993378,"27":-0.05795251578092575,"28":-0.07630572468042374,"29":0.16771908104419708,"30":0.0965631976723671,"31":-0.145081028342247,"32":0.12183748930692673,"33":-0.03701116889715195,"34":-0.06526616960763931,"35":0.10125721246004105,"36":0.16680677235126495,"37":0.04602259397506714,"38":-0.1890033483505249,"39":-0.08042726665735245,"40":-0.020697718486189842,"41":-0.10777953267097473,"42":-0.17683614790439606,"43":-0.039396557956933975,"44":0.10114620625972748,"45":-0.010156303644180298,"46":-0.15222546458244324,"47":0.12864971160888672,"48":-0.08046218007802963,"49":0.040963657200336456,"50":0.15941420197486877,"51":-0.0687413439154625,"52":0.19349582493305206,"53":0.05409559607505798,"54":-0.12928862869739532,"55":0.08308583498001099,"56":-0.05619344860315323,"57":0.1545916497707367,"58":0.11324118822813034,"59":0.011533531360328197,"60":-0.06075448542833328,"61":0.07649719715118408,"62":-0.09617912024259567,"63":-0.029739873483777046,"64":0.1462591588497162,"65":-0.03132913261651993,"66":-0.11608803272247314,"67":0.1862238496541977,"68":-0.020081842318177223,"69":-0.1924380362033844,"70":-0.13896772265434265,"71":0.05577557161450386,"72":0.17719519138336182,"73":-0.13826242089271545,"74":0.12076859921216965,"75":0.040369533002376556,"76":-0.1153896152973175,"77":-0.08606734126806259,"78":0.005977268796414137,"79":0.1837705671787262,"80":0.07830831408500671,"81":0.16605009138584137,"82":0.09287973493337631,"83":-0.04351470246911049,"84":0.12810014188289642,"85":0.18789780139923096,"86":-0.13597682118415833,"87":-0.0852796658873558,"88":-0.09787867218255997,"89":-0.19076091051101685,"90":0.07416419684886932,"91":0.09341330826282501,"92":0.03054976835846901,"93":-0.058987900614738464,"94":0.017372682690620422,"95":-0.0988001748919487,"96":0.05711283162236214,"97":0.08407477289438248,"98":0.19261585175991058,"99":-0.17902091145515442,"100":-0.17437976598739624,"101":0.1045384630560875,"102":0.16421358287334442,"103":-0.0010437995661050081,"104":-0.12700523436069489,"105":0.16998764872550964,"106":-0.04352308809757233,"107":-0.08598708361387253,"108":-0.006175955291837454,"109":-0.1731547862291336,"110":-0.0798012837767601,"111":-0.027710573747754097,"112":0.11083846539258957,"113":-0.06358523666858673,"114":-0.013330770656466484,"115":0.0674818828701973,"116":0.08342204988002777,"117":0.1263265162706375,"118":0.07514192909002304,"119":0.1606791764497757,"120":-0.0895322784781456,"121":-0.12028457969427109,"122":-0.030364368110895157,"123":0.14111779630184174,"124":0.014123690314590931,"125":0.1789415031671524,"126":-0.18348199129104614,"127":-0.05533642694354057,"128":0.12875215709209442,"129":-0.06488659232854843,"130":-0.0762883871793747,"131":-0.018633347004652023,"132":0.0845014899969101,"133":-0.15664249658584595,"134":-0.18566982448101044,"135":-0.1605575531721115,"136":0.08588346093893051,"137":-0.17133729159832,"138":-0.08027111738920212,"139":0.03115563467144966,"140":-0.0058023808524012566,"141":0.08062716573476791,"142":0.021156303584575653,"143":-0.1344989836215973,"144":-0.08822622895240784,"145":0.11173325777053833,"146":-0.16988441348075867,"147":0.03877638280391693,"148":0.05179399996995926,"149":-0.0007071270956657827,"150":-0.011837311089038849,"151":0.13367894291877747,"152":0.09224368631839752,"153":-0.009266633540391922,"154":0.005971119739115238,"155":-0.11406880617141724,"156":-0.05425649881362915,"157":-0.07420335710048676,"158":0.17918772995471954,"159":0.1888955980539322,"160":-0.09250715374946594,"161":0.05871585011482239,"162":0.03387213870882988,"163":-0.1259264200925827,"164":0.024980267509818077,"165":0.14211156964302063,"166":0.12968578934669495,"167":0.18676486611366272,"168":0.007810501381754875,"169":-0.14452992379665375,"170":-0.17841364443302155,"171":-0.17408019304275513,"172":0.0018128074007108808,"173":-0.11004611104726791,"174":0.11410001665353775,"175":0.03245934471487999,"176":0.10249900817871094,"177":-0.18199731409549713,"178":0.004137721378356218,"179":-0.11412602663040161,"180":0.08902917057275772,"181":0.18097804486751556,"182":-0.17938321828842163,"183":0.0818067193031311,"184":-0.17644234001636505,"185":0.16436782479286194,"186":-0.14398905634880066,"187":0.12088385224342346,"188":0.11971396207809448,"189":0.021708158776164055,"190":-0.10476052761077881,"191":-0.1560741513967514,"192":-0.13583441078662872,"193":0.14653535187244415,"194":-0.0010162093676626682,"195":-0.15304505825042725,"196":-0.06636151671409607,"197":-0.06894072890281677,"198":-0.05798175930976868,"199":-0.020600153133273125,"200":-0.0068143210373818874,"201":0.11450041085481644,"202":-0.01842871867120266,"203":0.1553094983100891,"204":0.14854127168655396,"205":0.004023492336273193,"206":0.05849146842956543,"207":0.15468940138816833,"208":0.19355295598506927,"209":-0.1446237415075302,"210":0.18492446839809418,"211":-0.06877753883600235,"212":-0.00672035850584507,"213":-0.123744435608387,"214":0.06600770354270935,"215":-0.097202830016613,"216":-0.17177467048168182,"217":-0.09987315535545349,"218":0.004502907395362854,"219":-0.08187753707170486,"220":0.13130265474319458,"221":0.08970213681459427,"222":0.07197493314743042,"223":0.05297883599996567,"224":0.04361598938703537}},"7":{"bias":0.10531575977802277,"weights":{"0":0.18209557235240936,"1":-0.16400817036628723,"2":-0.04660699516534805,"3":-0.10722993314266205,"4":0.062255192548036575,"5":-0.10976134985685349,"6":-0.0016548691783100367,"7":0.04899129271507263,"8":-0.19326578080654144,"9":0.14747163653373718,"10":0.10585460811853409,"11":0.17868909239768982,"12":0.1183629035949707,"13":-0.1450880467891693,"14":-0.12427564710378647,"15":0.006236675661057234,"16":-0.10533454269170761,"17":0.03593459725379944,"18":0.013933665119111538,"19":0.18541264533996582,"20":-0.03255848586559296,"21":0.13890387117862701,"22":0.0489688478410244,"23":0.15338051319122314,"24":-0.01937241107225418,"25":0.17006127536296844,"26":0.06078587472438812,"27":-0.1291935294866562,"28":0.14256402850151062,"29":-0.08213536441326141,"30":0.01190205104649067,"31":0.05552227050065994,"32":-0.07595117390155792,"33":-0.17251333594322205,"34":-0.15782441198825836,"35":0.04454291984438896,"36":0.10492360591888428,"37":-0.11706046015024185,"38":0.09365393966436386,"39":0.16300101578235626,"40":0.1581614911556244,"41":0.07747149467468262,"42":0.04866980388760567,"43":0.12999805808067322,"44":0.0038090613670647144,"45":-0.11833589524030685,"46":0.06523977220058441,"47":-0.06349842995405197,"48":-0.00416632229462266,"49":0.03193018212914467,"50":-0.1253776252269745,"51":-0.13722963631153107,"52":0.11057150363922119,"53":-0.13394175469875336,"54":0.038065727800130844,"55":-0.1717638075351715,"56":-0.01573173888027668,"57":0.052848681807518005,"58":-0.05808858200907707,"59":0.020653506740927696,"60":-0.08625824004411697,"61":0.12847232818603516,"62":0.06091495603322983,"63":0.008697085082530975,"64":0.022045159712433815,"65":0.20029699802398682,"66":-0.04026089608669281,"67":0.11327921599149704,"68":-0.16766177117824554,"69":-0.024360237643122673,"70":-0.039430346339941025,"71":0.16642038524150848,"72":-0.020024824887514114,"73":0.024222789332270622,"74":0.058372367173433304,"75":0.020239194855093956,"76":-0.12422790378332138,"77":-0.0872994139790535,"78":0.03920895606279373,"79":-0.13505013287067413,"80":-0.0762423649430275,"81":0.13879325985908508,"82":0.11607066541910172,"83":-0.06304528564214706,"84":0.01258149091154337,"85":0.10497697442770004,"86":0.19590941071510315,"87":0.023824874311685562,"88":-0.185396209359169,"89":0.08126648515462875,"90":-0.043952759355306625,"91":0.029965508729219437,"92":-0.1068992093205452,"93":0.16330572962760925,"94":-0.13966424763202667,"95":0.1178465485572815,"96":-0.07683444768190384,"97":-0.08089018613100052,"98":-0.12246714532375336,"99":0.05835479125380516,"100":0.02416340634226799,"101":0.03939061239361763,"102":0.15508022904396057,"103":-0.031484056264162064,"104":-0.13820810616016388,"105":-0.09486223757266998,"106":-0.06647782772779465,"107":0.022165359929203987,"108":-0.17997170984745026,"109":-0.12418127804994583,"110":-0.005513296462595463,"111":0.014763329178094864,"112":0.0173925943672657,"113":-0.08029210567474365,"114":-0.08367328345775604,"115":-0.1512661874294281,"116":-0.1718420833349228,"117":-0.15418532490730286,"118":0.09128627926111221,"119":-0.1148276999592781,"120":-0.050250157713890076,"121":-0.06780312955379486,"122":-0.12695470452308655,"123":-0.12983478605747223,"124":-0.009634875692427158,"125":0.14750683307647705,"126":0.1973169595003128,"127":-0.17703144252300262,"128":-0.039693091064691544,"129":-0.11372963339090347,"130":-0.09047194570302963,"131":0.03356092795729637,"132":0.1807418018579483,"133":0.02615070343017578,"134":0.1706676334142685,"135":0.02133784070611,"136":0.09351620823144913,"137":-0.1369147002696991,"138":-0.1880965381860733,"139":-0.07334668189287186,"140":-0.02712906524538994,"141":0.0053739785216748714,"142":-0.16622136533260345,"143":-0.12746907770633698,"144":-0.20700550079345703,"145":-0.050627365708351135,"146":0.02396778203547001,"147":-0.08859513700008392,"148":-0.00472410349175334,"149":0.1994800865650177,"150":0.017590953037142754,"151":-0.043322112411260605,"152":0.080746591091156,"153":0.08628066629171371,"154":0.10369673371315002,"155":0.10660950094461441,"156":-0.16043028235435486,"157":-0.023327264934778214,"158":-0.16289304196834564,"159":0.1328982263803482,"160":0.11558574438095093,"161":-0.018842872232198715,"162":0.012102566659450531,"163":-0.17602810263633728,"164":-0.06915373355150223,"165":-0.029157675802707672,"166":0.17235977947711945,"167":0.14100702106952667,"168":-0.11960086971521378,"169":0.1510024070739746,"170":0.05139101669192314,"171":0.03009391576051712,"172":0.052065636962652206,"173":-0.054542284458875656,"174":-0.1444094181060791,"175":0.047057826071977615,"176":0.128986656665802,"177":0.007123458199203014,"178":0.016182364895939827,"179":0.10416525602340698,"180":-0.13095806539058685,"181":0.054521821439266205,"182":-0.08996444940567017,"183":0.12493589520454407,"184":0.061281174421310425,"185":-0.05808305740356445,"186":-0.13807113468647003,"187":-0.13772569596767426,"188":0.15323400497436523,"189":0.1459861546754837,"190":-0.00573744298890233,"191":0.06381374597549438,"192":-0.08847548812627792,"193":-0.024211328476667404,"194":-0.13487476110458374,"195":0.07433365285396576,"196":0.18814189732074738,"197":-0.05037540942430496,"198":-0.027639495208859444,"199":0.10570578277111053,"200":0.12575557827949524,"201":-0.15033000707626343,"202":-0.1378229707479477,"203":-0.0833544060587883,"204":-0.17524832487106323,"205":-0.09807991981506348,"206":-0.023695027455687523,"207":0.1353279948234558,"208":0.1841132789850235,"209":-0.15613287687301636,"210":-0.19801293313503265,"211":-0.0933576449751854,"212":-0.19638985395431519,"213":-0.1949014961719513,"214":-0.1648927628993988,"215":-0.024116354063153267,"216":0.053930845111608505,"217":0.11914578080177307,"218":-0.17289158701896667,"219":0.07556959986686707,"220":0.19871193170547485,"221":0.09561285376548767,"222":-0.16866053640842438,"223":0.16683703660964966,"224":-0.04228755831718445}},"8":{"bias":-0.18908630311489105,"weights":{"0":-0.13052785396575928,"1":-0.009438124485313892,"2":0.11053331196308136,"3":0.10463521629571915,"4":-0.03722536936402321,"5":0.19247446954250336,"6":0.12196023017168045,"7":-0.16348418593406677,"8":0.047183822840452194,"9":0.011172535829246044,"10":-0.17976988852024078,"11":0.07705021649599075,"12":-0.18235260248184204,"13":-0.15882718563079834,"14":-0.08473961800336838,"15":-0.003408280434086919,"16":-0.18700608611106873,"17":-0.029541153460741043,"18":0.09243620932102203,"19":-0.1323152482509613,"20":0.12625542283058167,"21":-0.06914965063333511,"22":0.18600742518901825,"23":-0.06946396827697754,"24":-0.08130411058664322,"25":0.138496533036232,"26":0.16036345064640045,"27":-0.12103526294231415,"28":-0.19926777482032776,"29":-0.1293659210205078,"30":0.13240495324134827,"31":-0.07433406263589859,"32":0.020516635850071907,"33":0.15495234727859497,"34":-0.03965609893202782,"35":-0.0448804534971714,"36":0.011939102783799171,"37":-0.12797300517559052,"38":-0.16174638271331787,"39":0.04687001183629036,"40":-0.06479249894618988,"41":0.18505613505840302,"42":0.17912042140960693,"43":0.11427992582321167,"44":-0.16270460188388824,"45":0.1638796478509903,"46":0.06726238131523132,"47":-0.08788874000310898,"48":0.01570669189095497,"49":-0.17144683003425598,"50":-0.0810999870300293,"51":0.019121631979942322,"52":0.09339882433414459,"53":-0.16137740015983582,"54":0.0873304232954979,"55":-0.07002048194408417,"56":0.1523606926202774,"57":0.05191996321082115,"58":-0.1776912957429886,"59":0.032876644283533096,"60":0.10759169608354568,"61":-0.025063788518309593,"62":0.1578478068113327,"63":-0.1414783000946045,"64":-0.10078646242618561,"65":-0.04212375730276108,"66":-0.006420114543288946,"67":0.15777426958084106,"68":0.08719823509454727,"69":0.13069093227386475,"70":0.055368147790431976,"71":-0.057748861610889435,"72":0.01382233202457428,"73":0.0038564372807741165,"74":-0.14168936014175415,"75":-0.054158736020326614,"76":0.014492794871330261,"77":0.14168813824653625,"78":0.12074808031320572,"79":-0.08601052314043045,"80":0.043433524668216705,"81":0.07057739049196243,"82":0.05641648918390274,"83":0.005166175309568644,"84":-0.17252638936042786,"85":-0.13210982084274292,"86":0.01373465359210968,"87":0.02934296242892742,"88":-0.005286791827529669,"89":0.10102630406618118,"90":0.06176839396357536,"91":0.03920130804181099,"92":0.07152245938777924,"93":-0.12806853652000427,"94":0.0325104221701622,"95":0.17166981101036072,"96":0.09754887223243713,"97":0.07778342813253403,"98":0.1395060122013092,"99":0.1509137600660324,"100":-0.16727182269096375,"101":-0.025357821956276894,"102":0.19352023303508759,"103":-0.1015075221657753,"104":-0.0592222735285759,"105":0.06884507089853287,"106":0.08725300431251526,"107":-0.19970008730888367,"108":0.023294955492019653,"109":0.03268289938569069,"110":0.15490616858005524,"111":-0.10993899405002594,"112":-0.05625961720943451,"113":-0.11911211162805557,"114":-0.11982087045907974,"115":-0.016510125249624252,"116":0.007914634421467781,"117":0.0671532079577446,"118":-0.05518736690282822,"119":0.15522880852222443,"120":0.12067043781280518,"121":-0.03157752752304077,"122":0.03002842515707016,"123":0.10352833569049835,"124":-0.10440032184123993,"125":-0.18693962693214417,"126":-0.11335545778274536,"127":0.03712828829884529,"128":0.03916096314787865,"129":0.0800197571516037,"130":0.06092241406440735,"131":-0.02971576899290085,"132":-0.11487977206707001,"133":0.17974676191806793,"134":0.18046194314956665,"135":0.03453997150063515,"136":0.11134986579418182,"137":-0.18059954047203064,"138":-0.09103590250015259,"139":-0.06674044579267502,"140":0.060438934713602066,"141":0.16747811436653137,"142":-0.049361199140548706,"143":0.1401384472846985,"144":-0.009740031324326992,"145":0.08947743475437164,"146":0.15293671190738678,"147":-0.05411709472537041,"148":-0.0156470388174057,"149":0.16304944455623627,"150":0.04734797403216362,"151":0.12725280225276947,"152":-0.013027402572333813,"153":-0.1528129279613495,"154":0.030075116083025932,"155":0.13912241160869598,"156":-0.20413069427013397,"157":-0.03908110409975052,"158":0.17450161278247833,"159":-0.025601712986826897,"160":-0.0763569250702858,"161":0.192941352725029,"162":0.010877743363380432,"163":0.11429698020219803,"164":0.08582167327404022,"165":-0.152497798204422,"166":-0.1783190667629242,"167":-0.0785386711359024,"168":0.04538938030600548,"169":-0.0847221314907074,"170":-0.11531174927949905,"171":-0.1367150843143463,"172":-0.17784588038921356,"173":-0.11290119588375092,"174":0.038754839450120926,"175":-0.03041979670524597,"176":-0.018367020413279533,"177":0.18984302878379822,"178":-0.09496260434389114,"179":-0.00864330492913723,"180":-0.06685131043195724,"181":0.18150362372398376,"182":0.17579123377799988,"183":0.041653916239738464,"184":-0.04155667498707771,"185":0.16866958141326904,"186":0.12604467570781708,"187":-0.135906383395195,"188":0.1278572678565979,"189":-0.1237240806221962,"190":-0.1494661122560501,"191":-0.17719930410385132,"192":0.10509300231933594,"193":0.08978726714849472,"194":-0.1218314990401268,"195":-0.02616458386182785,"196":0.0692773312330246,"197":0.007403005380183458,"198":0.04492524638772011,"199":-0.01371585950255394,"200":-0.18478485941886902,"201":-0.0686749666929245,"202":0.08688158541917801,"203":-0.13555647432804108,"204":-0.02386665716767311,"205":0.05395936965942383,"206":0.18084774911403656,"207":-0.16886624693870544,"208":0.13978201150894165,"209":-0.17537294328212738,"210":0.010697570629417896,"211":0.039594557136297226,"212":0.00827367790043354,"213":0.11488313227891922,"214":-0.11259372532367706,"215":0.07302872091531754,"216":0.08067723363637924,"217":-0.01351411733776331,"218":-0.16434670984745026,"219":0.009335417300462723,"220":0.1725485622882843,"221":-0.08737992495298386,"222":-0.06913423538208008,"223":0.11334194242954254,"224":0.14465051889419556}},"9":{"bias":-0.1910405457019806,"weights":{"0":-0.18860697746276855,"1":0.1619441658258438,"2":-0.15293049812316895,"3":-0.19056448340415955,"4":-0.13986967504024506,"5":0.18122681975364685,"6":0.13038873672485352,"7":-0.10724577307701111,"8":-0.07666489481925964,"9":-0.014039706438779831,"10":-0.1369609832763672,"11":0.08872541785240173,"12":0.06939641386270523,"13":-0.1989053189754486,"14":0.01618366874754429,"15":-0.1455567479133606,"16":0.10964080691337585,"17":-0.03468162938952446,"18":0.16285263001918793,"19":0.1022564023733139,"20":0.02119811251759529,"21":-0.04191731661558151,"22":0.07549607008695602,"23":0.012719552963972092,"24":-0.1163019984960556,"25":-0.16721588373184204,"26":-0.1975526213645935,"27":0.1755005121231079,"28":-0.08042594790458679,"29":-0.17126427590847015,"30":0.008516829460859299,"31":0.10782229155302048,"32":0.047734636813402176,"33":0.18841837346553802,"34":-0.029485860839486122,"35":-0.19961340725421906,"36":0.12287016212940216,"37":0.17174400389194489,"38":0.020789604634046555,"39":-0.017697744071483612,"40":0.1605832725763321,"41":0.16311228275299072,"42":-0.0041069285944104195,"43":-0.1428886502981186,"44":0.14532801508903503,"45":0.02224104292690754,"46":0.1082841232419014,"47":0.012457913719117641,"48":-0.06335148215293884,"49":-0.016360776498913765,"50":0.1106618121266365,"51":-0.11001604795455933,"52":0.012493902817368507,"53":0.07844077050685883,"54":0.02808743342757225,"55":-0.16707399487495422,"56":-0.06565317511558533,"57":-0.07046828418970108,"58":-0.16874420642852783,"59":-0.16618211567401886,"60":-0.09263595193624496,"61":-0.0323362722992897,"62":0.11323618143796921,"63":-0.13592135906219482,"64":0.04575766995549202,"65":0.025096982717514038,"66":-0.10673817247152328,"67":0.10982830822467804,"68":-0.12277466058731079,"69":-0.07995036989450455,"70":-0.02761729434132576,"71":0.11955250054597855,"72":-0.15057255327701569,"73":0.14599178731441498,"74":0.04091377556324005,"75":0.09212569892406464,"76":-0.13508567214012146,"77":0.12868759036064148,"78":0.08014494925737381,"79":-0.11212725937366486,"80":-0.07099909335374832,"81":0.08387550711631775,"82":0.11856675893068314,"83":-0.06928626447916031,"84":0.06867726147174835,"85":0.18819645047187805,"86":-0.13110540807247162,"87":-0.1913052499294281,"88":0.05653497204184532,"89":0.09231562167406082,"90":0.06346114724874496,"91":0.008899287320673466,"92":-0.12746116518974304,"93":-0.05085260048508644,"94":0.07142649590969086,"95":-0.1472574770450592,"96":-0.11138955503702164,"97":-0.024788210168480873,"98":0.04646720364689827,"99":0.18238241970539093,"100":-0.046094510704278946,"101":0.09501772373914719,"102":-0.0883098840713501,"103":0.15764033794403076,"104":0.10180045664310455,"105":0.018532970920205116,"106":0.13112527132034302,"107":-0.07548193633556366,"108":-0.06417420506477356,"109":-0.07379015535116196,"110":-0.16026785969734192,"111":-0.02979717031121254,"112":-0.18040093779563904,"113":-0.1549382507801056,"114":0.09636005014181137,"115":-0.015800056979060173,"116":-0.003760209772735834,"117":0.10346178710460663,"118":-0.08180714398622513,"119":0.16648924350738525,"120":-0.07175421714782715,"121":0.16109062731266022,"122":-0.08853787928819656,"123":0.1379534751176834,"124":-0.0056473733857274055,"125":-0.010838259942829609,"126":0.003277101553976536,"127":0.03251689299941063,"128":0.061099596321582794,"129":0.2028062790632248,"130":-0.17407932877540588,"131":0.1632402241230011,"132":0.009976610541343689,"133":-0.12321694940328598,"134":-0.06631550937891006,"135":0.15608981251716614,"136":0.03374902158975601,"137":0.13665330410003662,"138":0.13534635305404663,"139":-0.03707141429185867,"140":0.17087703943252563,"141":-0.03365938737988472,"142":-0.15955375134944916,"143":0.029003003612160683,"144":0.11347029358148575,"145":-0.09709271043539047,"146":0.09069476276636124,"147":0.19480115175247192,"148":0.06328380852937698,"149":-0.15382884442806244,"150":-0.007149467710405588,"151":0.18874908983707428,"152":0.020048238337039948,"153":-0.1897667795419693,"154":0.14050830900669098,"155":-0.12630079686641693,"156":-0.15044757723808289,"157":-0.1707686334848404,"158":0.06663212925195694,"159":-0.06774779409170151,"160":0.14378787577152252,"161":-0.019782928749918938,"162":-0.07692698389291763,"163":-0.16469871997833252,"164":-0.045988552272319794,"165":0.016547296196222305,"166":-0.06300792098045349,"167":-0.09346871823072433,"168":-0.06550862640142441,"169":0.042735811322927475,"170":-0.02754043973982334,"171":0.08043835312128067,"172":0.049054842442274094,"173":-0.18259671330451965,"174":0.08756492286920547,"175":-0.02864784002304077,"176":-0.10948662459850311,"177":-0.11477360874414444,"178":0.16889938712120056,"179":0.02267548069357872,"180":0.16289575397968292,"181":-0.010949239134788513,"182":-0.1710355579853058,"183":-0.1216466873884201,"184":0.09218180924654007,"185":0.19692648947238922,"186":0.10263459384441376,"187":-0.12617985904216766,"188":-0.1122579351067543,"189":0.1640850007534027,"190":-0.1308976411819458,"191":0.004340615589171648,"192":-0.1737728714942932,"193":0.049616385251283646,"194":0.13520385324954987,"195":-0.17803740501403809,"196":-0.07893435657024384,"197":-0.1507120430469513,"198":-0.1526985913515091,"199":0.10151990503072739,"200":0.035116638988256454,"201":-0.07860580086708069,"202":-0.006451481021940708,"203":0.19889649748802185,"204":0.1688157320022583,"205":0.1983228623867035,"206":-0.12432832270860672,"207":0.04746605455875397,"208":0.04975038394331932,"209":0.047679074108600616,"210":-0.03063957951962948,"211":-0.19624820351600647,"212":-0.18505671620368958,"213":0.061607249081134796,"214":0.1578853279352188,"215":0.07719244807958603,"216":-0.005970756523311138,"217":0.14155177772045135,"218":-0.11705133318901062,"219":-0.05313665047287941,"220":0.14098408818244934,"221":0.19334185123443604,"222":0.05509188398718834,"223":-0.012141936458647251,"224":-0.19560599327087402}},"10":{"bias":0.062274377793073654,"weights":{"0":0.1622171700000763,"1":0.15604820847511292,"2":-0.07083848118782043,"3":0.07026691734790802,"4":0.10049845278263092,"5":-0.06324167549610138,"6":0.1635454148054123,"7":-0.17363987863063812,"8":0.1994602233171463,"9":-0.12806259095668793,"10":-0.1189611479640007,"11":0.18860769271850586,"12":0.1201201006770134,"13":0.010916409082710743,"14":0.18328264355659485,"15":0.18322546780109406,"16":-0.012216021306812763,"17":0.12308408319950104,"18":-0.18137159943580627,"19":0.140024334192276,"20":0.05844204127788544,"21":0.15015104413032532,"22":0.031578101217746735,"23":0.0024573784321546555,"24":-0.18886838853359222,"25":-0.050330694764852524,"26":0.041348591446876526,"27":-0.1956735998392105,"28":0.1947110891342163,"29":-0.03891593962907791,"30":-0.0037396003026515245,"31":-0.05569690465927124,"32":0.0933736115694046,"33":-0.13230934739112854,"34":-0.07155786454677582,"35":-0.10628315806388855,"36":0.048825137317180634,"37":-0.0797065943479538,"38":0.1774853765964508,"39":-0.035179078578948975,"40":-0.01737675815820694,"41":0.08546720445156097,"42":-0.13299256563186646,"43":0.07524009048938751,"44":-0.1418565809726715,"45":-0.08047247678041458,"46":0.15394766628742218,"47":-0.054526105523109436,"48":0.15996046364307404,"49":0.15717419981956482,"50":0.04686656966805458,"51":0.12882110476493835,"52":0.0028182424139231443,"53":0.05638862028717995,"54":-0.09623828530311584,"55":-0.10264953225851059,"56":-0.19170287251472473,"57":-0.07854270190000534,"58":0.14032119512557983,"59":0.09761777520179749,"60":0.05132030323147774,"61":-0.14130648970603943,"62":0.19340956211090088,"63":-0.17873451113700867,"64":-0.11356322467327118,"65":0.18182146549224854,"66":0.06062179431319237,"67":-0.12639200687408447,"68":0.08305861055850983,"69":-0.04440992698073387,"70":-0.04991476610302925,"71":-0.20007885992527008,"72":0.09340571612119675,"73":-0.14158250391483307,"74":-0.03236391022801399,"75":-0.09651903808116913,"76":0.021435720846056938,"77":-0.02477596327662468,"78":-0.19408926367759705,"79":-0.11608767509460449,"80":0.12836943566799164,"81":0.05401855334639549,"82":0.15053680539131165,"83":-0.15004697442054749,"84":0.06123511865735054,"85":0.15485569834709167,"86":-0.13601505756378174,"87":0.09827398508787155,"88":-0.050976481288671494,"89":0.0029712843243032694,"90":0.01735188625752926,"91":0.006078268866986036,"92":0.13724550604820251,"93":-0.19148088991641998,"94":0.09673485159873962,"95":0.10708004981279373,"96":-0.19082358479499817,"97":0.1601942926645279,"98":0.1879192739725113,"99":-0.06724868714809418,"100":-0.16225333511829376,"101":0.19232149422168732,"102":-0.17468871176242828,"103":-0.1488737314939499,"104":-0.11090940982103348,"105":-0.09058945626020432,"106":0.004200376104563475,"107":-0.06016499176621437,"108":-0.020931193605065346,"109":-0.0868082344532013,"110":-0.014480712823569775,"111":0.025095000863075256,"112":0.07512488961219788,"113":0.019130077213048935,"114":-0.013201185502111912,"115":-0.07244481891393661,"116":-0.16847054660320282,"117":0.16249819099903107,"118":-0.0944550633430481,"119":-0.007777601946145296,"120":-0.1893555074930191,"121":-0.013607833534479141,"122":0.19969116151332855,"123":0.08317821472883224,"124":0.014731908217072487,"125":0.10651054978370667,"126":0.17654259502887726,"127":0.1862763911485672,"128":0.10302664339542389,"129":-0.059972625225782394,"130":-0.15541845560073853,"131":-0.15300191938877106,"132":-0.018040912225842476,"133":-0.06443139165639877,"134":0.11944873631000519,"135":0.1750466525554657,"136":0.17623598873615265,"137":0.13562284409999847,"138":0.08854123950004578,"139":0.163534015417099,"140":0.047908712178468704,"141":0.02950957976281643,"142":-0.13652358949184418,"143":-0.18278439342975616,"144":0.028511090204119682,"145":-0.20970742404460907,"146":-0.06949251890182495,"147":-0.018802408128976822,"148":-0.10054320842027664,"149":0.07111262530088425,"150":-0.152420774102211,"151":0.0037312356289476156,"152":0.024302102625370026,"153":0.10052434355020523,"154":-0.04682660102844238,"155":0.015977175906300545,"156":0.0330328643321991,"157":0.1611470878124237,"158":-0.13982513546943665,"159":0.0844772458076477,"160":0.20026154816150665,"161":0.025474559515714645,"162":-0.09729838371276855,"163":-0.01650291122496128,"164":-0.11783473193645477,"165":-0.18946775794029236,"166":-0.17638041079044342,"167":-0.001949217519722879,"168":-0.15746775269508362,"169":-0.19135166704654694,"170":0.024313803762197495,"171":-0.012531454674899578,"172":-0.035905368626117706,"173":0.1863485723733902,"174":-0.12747830152511597,"175":0.12575027346611023,"176":-0.08382010459899902,"177":0.0796360895037651,"178":-0.1998668611049652,"179":-0.048502881079912186,"180":0.08207282423973083,"181":-0.052802447229623795,"182":0.19761358201503754,"183":0.16593651473522186,"184":-0.1027805283665657,"185":0.15961621701717377,"186":0.16949041187763214,"187":0.17918618023395538,"188":-0.04404140263795853,"189":0.06653353571891785,"190":0.13344596326351166,"191":-0.13829582929611206,"192":0.09234658628702164,"193":-0.05532637983560562,"194":0.06040402501821518,"195":-0.12813113629817963,"196":0.09517189115285873,"197":0.14709503948688507,"198":0.14144445955753326,"199":-0.031890179961919785,"200":0.032395798712968826,"201":-0.1388494074344635,"202":-0.039124879986047745,"203":-0.08195066452026367,"204":-0.076988585293293,"205":0.12944096326828003,"206":0.10470897704362869,"207":0.1315775215625763,"208":-0.036934398114681244,"209":0.139545738697052,"210":0.060259345918893814,"211":-0.06736506521701813,"212":0.041843242943286896,"213":0.011526360176503658,"214":0.011488704942166805,"215":-0.15658216178417206,"216":0.11533333361148834,"217":-0.12100277841091156,"218":-0.1339581161737442,"219":0.143650084733963,"220":-0.16895924508571625,"221":-0.12137927860021591,"222":-0.1353367269039154,"223":0.09396055340766907,"224":-0.00719628669321537}},"11":{"bias":-0.1340244859457016,"weights":{"0":-0.025627296417951584,"1":0.12901853024959564,"2":0.13500763475894928,"3":0.055579930543899536,"4":0.02566790021955967,"5":0.1588854193687439,"6":-0.000501916860230267,"7":-0.021472124382853508,"8":0.019110560417175293,"9":-0.16336560249328613,"10":0.19418932497501373,"11":0.178855761885643,"12":0.14870356023311615,"13":0.012480243109166622,"14":0.010381501168012619,"15":-0.040847618132829666,"16":-0.06898094713687897,"17":0.19647535681724548,"18":-0.14543387293815613,"19":0.01313268393278122,"20":0.1679876446723938,"21":-0.03220071643590927,"22":0.05015316605567932,"23":0.10003247112035751,"24":0.16059984266757965,"25":0.06956598907709122,"26":-0.0010308165801689029,"27":-0.0925990641117096,"28":0.07915718853473663,"29":0.011661645956337452,"30":-0.1864050328731537,"31":-0.16861693561077118,"32":0.05372828245162964,"33":-0.05659199133515358,"34":0.02799777314066887,"35":-0.1532582938671112,"36":0.1147482767701149,"37":-0.18824829161167145,"38":0.14139732718467712,"39":0.14403262734413147,"40":-0.14730583131313324,"41":-0.10984528809785843,"42":0.1733323484659195,"43":-0.12454071640968323,"44":-0.11982417106628418,"45":-0.17704062163829803,"46":0.1628360152244568,"47":0.1515609472990036,"48":-0.19054292142391205,"49":0.08083901554346085,"50":0.17325599491596222,"51":-0.0900375172495842,"52":0.18571460247039795,"53":0.08293217420578003,"54":0.05056020990014076,"55":0.14534299075603485,"56":0.0351276695728302,"57":0.0843687504529953,"58":0.013284226879477501,"59":0.16328096389770508,"60":0.1672096997499466,"61":0.04349396750330925,"62":-0.1628255695104599,"63":-0.10164137929677963,"64":-0.029654433950781822,"65":-0.13435015082359314,"66":0.1469675898551941,"67":0.09488626569509506,"68":-0.17071644961833954,"69":0.08019499480724335,"70":-0.027955293655395508,"71":0.15706020593643188,"72":0.09181152284145355,"73":0.03852233290672302,"74":0.10360553115606308,"75":-0.13387496769428253,"76":0.01194975059479475,"77":0.15930359065532684,"78":0.17315950989723206,"79":0.13660944998264313,"80":-0.17364120483398438,"81":-0.04526907950639725,"82":0.09945610910654068,"83":0.12375760823488235,"84":-0.1545344591140747,"85":-0.11950640380382538,"86":0.09394504129886627,"87":0.02130715921521187,"88":-0.01821773499250412,"89":0.052972860634326935,"90":-0.06425116211175919,"91":0.0896279513835907,"92":-0.012323584407567978,"93":-0.18436415493488312,"94":-0.07727416604757309,"95":-0.03371087834239006,"96":-0.038131680339574814,"97":-0.04595976695418358,"98":0.12470883131027222,"99":-0.028664063662290573,"100":0.18408404290676117,"101":-0.18671904504299164,"102":-0.03101319447159767,"103":-0.04113262519240379,"104":0.010087992995977402,"105":0.0136632164940238,"106":0.08667582273483276,"107":0.1781410574913025,"108":0.18769662082195282,"109":0.047751858830451965,"110":-0.015363187529146671,"111":0.10230211913585663,"112":-0.16437338292598724,"113":-0.08461763709783554,"114":0.004204974044114351,"115":0.1125725731253624,"116":-0.017732946202158928,"117":-0.1788826733827591,"118":-0.006425444968044758,"119":-0.11408199369907379,"120":-0.1805802285671234,"121":-0.020520005375146866,"122":0.03206991031765938,"123":0.02776949666440487,"124":-0.15250521898269653,"125":0.17669521272182465,"126":0.06114839389920235,"127":-0.13255958259105682,"128":-0.031872477382421494,"129":-0.0918249785900116,"130":-0.03872423619031906,"131":0.02008781209588051,"132":-0.00349941267631948,"133":0.027134818956255913,"134":0.16739067435264587,"135":0.0006823051953688264,"136":0.0273318812251091,"137":0.11628630012273788,"138":0.15415404736995697,"139":-0.09154797345399857,"140":-0.17702527344226837,"141":-0.20550614595413208,"142":-0.010579989291727543,"143":0.009841667488217354,"144":-0.03685711324214935,"145":-0.18508756160736084,"146":0.04894252493977547,"147":-0.0783931165933609,"148":0.027014359831809998,"149":-0.13900533318519592,"150":0.017633449286222458,"151":0.15969520807266235,"152":0.16878753900527954,"153":0.09323447942733765,"154":0.005278122145682573,"155":-0.09527235478162766,"156":0.16925905644893646,"157":0.07285284996032715,"158":-0.05103509873151779,"159":-0.07405396550893784,"160":-0.0802931934595108,"161":-0.13488702476024628,"162":-0.15628212690353394,"163":-0.134952113032341,"164":-0.14606042206287384,"165":0.09891968965530396,"166":0.17139197885990143,"167":0.06590449810028076,"168":0.06510210782289505,"169":0.07604999840259552,"170":0.06822548806667328,"171":-0.06355954706668854,"172":0.0767085999250412,"173":-0.018321193754673004,"174":-0.038049522787332535,"175":0.13122346997261047,"176":-0.05925951898097992,"177":0.09535554051399231,"178":0.02933642640709877,"179":0.06164915859699249,"180":-0.13873781263828278,"181":-0.14177310466766357,"182":0.09200137853622437,"183":-0.15518809854984283,"184":-0.19156116247177124,"185":0.0044371457770466805,"186":0.1384338140487671,"187":-0.09323208779096603,"188":0.01039591059088707,"189":-0.10280052572488785,"190":-0.06028733029961586,"191":0.02305407077074051,"192":-0.19806872308254242,"193":0.17085659503936768,"194":0.06878501176834106,"195":0.049170851707458496,"196":0.15042977035045624,"197":0.17019250988960266,"198":-0.19165028631687164,"199":0.02015835791826248,"200":-0.1906920224428177,"201":-0.17248797416687012,"202":-0.05732496827840805,"203":-0.13814719021320343,"204":-0.09754480421543121,"205":0.11120341718196869,"206":-0.06781435757875443,"207":-0.021548515185713768,"208":-0.05902431160211563,"209":-0.11135391891002655,"210":-0.09709424525499344,"211":0.08801311254501343,"212":0.1553640365600586,"213":0.09923338145017624,"214":-0.17427772283554077,"215":-0.12566831707954407,"216":-0.06007459759712219,"217":-0.14525721967220306,"218":0.17032940685749054,"219":0.015233434736728668,"220":0.01619572378695011,"221":-0.040401775389909744,"222":-0.1711585968732834,"223":-0.1078694686293602,"224":-0.022181112319231033}},"12":{"bias":-0.035534150898456573,"weights":{"0":0.14262473583221436,"1":-0.06709937751293182,"2":0.00047779345186427236,"3":0.1522073596715927,"4":-0.18817080557346344,"5":-0.03536774963140488,"6":-0.08191651850938797,"7":-0.06465160846710205,"8":0.14540937542915344,"9":-0.015622520819306374,"10":-0.0490693673491478,"11":0.04186265543103218,"12":-0.03169867768883705,"13":0.1269197016954422,"14":0.10525991767644882,"15":-0.07360247522592545,"16":0.16740019619464874,"17":-0.037739094346761703,"18":-0.11295577138662338,"19":0.015425484627485275,"20":-0.013388643972575665,"21":-0.11714168637990952,"22":-0.19313177466392517,"23":0.020996367558836937,"24":0.04734130948781967,"25":-0.010026768781244755,"26":0.14700862765312195,"27":0.11597833782434464,"28":0.1995055228471756,"29":0.015218721702694893,"30":-0.1235566958785057,"31":-0.007789861876517534,"32":0.00030096989939920604,"33":-0.08029257506132126,"34":-0.10909481346607208,"35":-0.051288824528455734,"36":-0.1827169954776764,"37":-0.10919789224863052,"38":0.15825818479061127,"39":0.16922880709171295,"40":-0.030949708074331284,"41":-0.18263782560825348,"42":-0.12198456376791,"43":0.13905824720859528,"44":0.11268401890993118,"45":-0.08608315885066986,"46":0.18378116190433502,"47":0.010787969455122948,"48":0.04942508041858673,"49":0.04393339529633522,"50":-0.01944681443274021,"51":0.12504981458187103,"52":-0.09755414724349976,"53":-0.017627937719225883,"54":-0.02116752415895462,"55":0.014264949597418308,"56":0.03584742546081543,"57":0.11798571050167084,"58":-0.04088343307375908,"59":0.1903422474861145,"60":-0.08245550096035004,"61":-0.17336523532867432,"62":-0.09203814715147018,"63":-0.12309509515762329,"64":0.173582062125206,"65":-0.16744250059127808,"66":0.13604886829853058,"67":0.15102092921733856,"68":0.042977266013622284,"69":0.18946190178394318,"70":-0.01852196641266346,"71":0.0473116934299469,"72":-0.04313161224126816,"73":0.12460824102163315,"74":0.053927138447761536,"75":0.019824786111712456,"76":-0.14290250837802887,"77":-0.07144919782876968,"78":-0.01753874309360981,"79":-0.19367407262325287,"80":0.10173040628433228,"81":0.13494640588760376,"82":0.03729218244552612,"83":-0.09992603957653046,"84":-0.11028502881526947,"85":-0.03302343562245369,"86":-0.005866814870387316,"87":0.10371819883584976,"88":-0.15371505916118622,"89":-0.178863063454628,"90":0.14026902616024017,"91":-0.02441341243684292,"92":0.09634770452976227,"93":-0.19993028044700623,"94":-0.002808305434882641,"95":-0.05779462680220604,"96":0.04029747098684311,"97":0.10808136314153671,"98":-0.004674298223108053,"99":-0.10570074617862701,"100":-0.16474281251430511,"101":-0.18680323660373688,"102":-0.06968411803245544,"103":0.14003325998783112,"104":-0.032809071242809296,"105":0.15333792567253113,"106":-0.11154165118932724,"107":-0.1872684359550476,"108":-0.12072981894016266,"109":-0.02551598660647869,"110":-0.19668333232402802,"111":-0.12451645731925964,"112":0.019845571368932724,"113":0.0104257483035326,"114":-0.17264774441719055,"115":0.09211210906505585,"116":0.09596643596887589,"117":-0.11475607752799988,"118":0.18733873963356018,"119":-0.121221162378788,"120":0.06247217208147049,"121":-0.03061247058212757,"122":0.050457913428545,"123":0.18292759358882904,"124":-0.09841255098581314,"125":-0.10112366825342178,"126":0.08557668328285217,"127":0.17012736201286316,"128":-0.0815369114279747,"129":0.07744427770376205,"130":0.1197599321603775,"131":0.07555292546749115,"132":0.10370226949453354,"133":-0.1197948306798935,"134":0.08269311487674713,"135":0.1510280817747116,"136":-0.1624177098274231,"137":-0.11564410477876663,"138":0.06539641320705414,"139":-0.12137772887945175,"140":-0.0880780965089798,"141":0.014012523926794529,"142":0.17064347863197327,"143":0.04244166985154152,"144":-0.06215965747833252,"145":0.016335761174559593,"146":0.04901103675365448,"147":0.13777229189872742,"148":-0.09377049654722214,"149":-0.03780965879559517,"150":-0.19606265425682068,"151":-0.0025012665428221226,"152":-0.126408651471138,"153":-0.034657448530197144,"154":-0.15187843143939972,"155":-0.1762050837278366,"156":0.16936944425106049,"157":0.17277280986309052,"158":-0.03729446977376938,"159":0.04081287980079651,"160":-0.1132231056690216,"161":-0.16283555328845978,"162":0.051370859146118164,"163":0.036718495190143585,"164":-0.17349709570407867,"165":0.1423788219690323,"166":0.06571570783853531,"167":0.11999709904193878,"168":-0.16441363096237183,"169":0.17135806381702423,"170":-0.1276898980140686,"171":-0.16775409877300262,"172":-0.008406395092606544,"173":-0.1832553595304489,"174":-0.07448899745941162,"175":-0.17861978709697723,"176":0.0485578216612339,"177":0.007387600839138031,"178":0.11930031329393387,"179":-0.1860044300556183,"180":0.19384518265724182,"181":-0.028888406231999397,"182":-0.042321112006902695,"183":0.09456028044223785,"184":0.09769783914089203,"185":-0.005621911026537418,"186":0.1743236780166626,"187":0.19082161784172058,"188":-0.03573308140039444,"189":0.16672629117965698,"190":0.14931873977184296,"191":0.13933829963207245,"192":0.0735679492354393,"193":0.19480279088020325,"194":-0.1734141707420349,"195":0.03428467735648155,"196":0.05000700429081917,"197":0.1368991732597351,"198":-0.16951125860214233,"199":-0.087834432721138,"200":-0.1906125843524933,"201":-0.1451827585697174,"202":-0.1376316100358963,"203":-0.0723685547709465,"204":0.14556773006916046,"205":-0.11084424704313278,"206":0.018190357834100723,"207":-0.05861087143421173,"208":-0.06291639804840088,"209":0.15354280173778534,"210":0.026244886219501495,"211":-0.03707341477274895,"212":0.09850221872329712,"213":0.01735169254243374,"214":-0.03739636763930321,"215":0.1560041904449463,"216":-0.05199046805500984,"217":0.18192158639431,"218":-0.0077510918490588665,"219":0.09210110455751419,"220":-0.13476787507534027,"221":-0.09811058640480042,"222":-0.16083501279354095,"223":0.002850620774552226,"224":0.03637147322297096}},"13":{"bias":0.13740745186805725,"weights":{"0":-0.08974617719650269,"1":0.13022199273109436,"2":-0.1424044817686081,"3":-0.09096705168485641,"4":-0.06661323457956314,"5":0.18133211135864258,"6":0.03631702437996864,"7":-0.05806168541312218,"8":-0.0762762799859047,"9":-0.02848375029861927,"10":0.10725993663072586,"11":0.06912751495838165,"12":-0.09311255812644958,"13":0.16804738342761993,"14":-0.06649680435657501,"15":-0.08331127464771271,"16":-0.18307079374790192,"17":0.09655532985925674,"18":0.07566137611865997,"19":-0.1070820689201355,"20":-0.1100500226020813,"21":-0.184895321726799,"22":-0.01969212293624878,"23":-0.03447403386235237,"24":-0.04601038992404938,"25":0.192640021443367,"26":-0.10486790537834167,"27":-0.09890849888324738,"28":0.03036794438958168,"29":0.09870702773332596,"30":-0.1322079598903656,"31":-0.1714775264263153,"32":0.005596577189862728,"33":-0.10364162176847458,"34":0.09553797543048859,"35":-0.06782791018486023,"36":-0.06143532320857048,"37":0.11785425990819931,"38":0.10693486034870148,"39":-0.054486602544784546,"40":0.12856292724609375,"41":0.1480265110731125,"42":0.10018891096115112,"43":0.09842460602521896,"44":-0.15588544309139252,"45":-0.022337397560477257,"46":-0.014377016574144363,"47":0.10921290516853333,"48":-0.09917236119508743,"49":0.03261706605553627,"50":-0.1421068161725998,"51":0.07853873074054718,"52":0.056250616908073425,"53":-0.039696820080280304,"54":0.16086460649967194,"55":-0.05521387234330177,"56":0.13231487572193146,"57":-0.009226384572684765,"58":0.18525271117687225,"59":-0.1988837867975235,"60":0.051141899079084396,"61":-0.046903908252716064,"62":0.15108437836170197,"63":0.09965081512928009,"64":0.13497717678546906,"65":0.03763381019234657,"66":0.077763631939888,"67":0.11155417561531067,"68":0.0334525965154171,"69":-0.08551054447889328,"70":-0.005893256049603224,"71":0.01929340697824955,"72":-0.011832545511424541,"73":0.17992450296878815,"74":0.12196895480155945,"75":-0.15832671523094177,"76":-0.05634023994207382,"77":-0.022224973887205124,"78":0.11973395198583603,"79":0.032694898545742035,"80":-0.020710743963718414,"81":-0.183254674077034,"82":0.06976597756147385,"83":-0.08036711066961288,"84":-0.19881682097911835,"85":0.17944343388080597,"86":0.12182839959859848,"87":0.02099974825978279,"88":-0.06923173367977142,"89":0.1234329342842102,"90":0.09122682362794876,"91":-0.19554904103279114,"92":0.10683924704790115,"93":0.18604780733585358,"94":0.17015855014324188,"95":0.19621720910072327,"96":-0.11668309569358826,"97":0.13847118616104126,"98":0.17929473519325256,"99":0.06553572416305542,"100":-0.09086351096630096,"101":-0.07917945832014084,"102":-0.028314238414168358,"103":0.014017043635249138,"104":0.05372701957821846,"105":-0.06405041366815567,"106":0.17653091251850128,"107":-0.1475609987974167,"108":0.16950584948062897,"109":-0.007949884980916977,"110":0.13066993653774261,"111":0.08780208230018616,"112":0.016375159844756126,"113":0.02772458642721176,"114":-0.08323390781879425,"115":-0.06696359068155289,"116":-0.11802735179662704,"117":-0.17400264739990234,"118":-0.06466037780046463,"119":0.16362804174423218,"120":-0.126059889793396,"121":-0.07692725211381912,"122":-0.07683160156011581,"123":-0.06027567759156227,"124":0.14499549567699432,"125":0.0531313382089138,"126":0.19051000475883484,"127":-0.08100045472383499,"128":-0.05100555717945099,"129":0.13112886250019073,"130":-0.08390902727842331,"131":0.008454425260424614,"132":0.08340764790773392,"133":-0.1655757874250412,"134":0.18327443301677704,"135":0.06741706281900406,"136":-0.1851280927658081,"137":0.03859831392765045,"138":-0.057656180113554,"139":0.01827388070523739,"140":-0.09613187611103058,"141":0.146891787648201,"142":0.11573295295238495,"143":-0.09302413463592529,"144":-0.06252337247133255,"145":0.1450200229883194,"146":-0.20031560957431793,"147":-0.07694707810878754,"148":0.07585403323173523,"149":-0.12120815366506577,"150":-0.08238731324672699,"151":-0.0185528676956892,"152":-0.0765165463089943,"153":-0.16376051306724548,"154":0.09335818886756897,"155":0.025641189888119698,"156":-0.1515294313430786,"157":0.13488087058067322,"158":0.02784639038145542,"159":-0.0019170138984918594,"160":0.1565794199705124,"161":-0.061110734939575195,"162":0.04049789533019066,"163":-0.08700887113809586,"164":-0.06040618196129799,"165":0.09975622594356537,"166":-0.1953268200159073,"167":-0.005423917435109615,"168":-0.03402188792824745,"169":-0.10705675929784775,"170":-0.18311947584152222,"171":-0.1871543973684311,"172":-0.048727620393037796,"173":0.01864522695541382,"174":-0.11616609245538712,"175":0.19212402403354645,"176":0.03409092500805855,"177":-0.04763499274849892,"178":0.0523810051381588,"179":0.08117906749248505,"180":0.05493033677339554,"181":0.11726092547178268,"182":0.024730440229177475,"183":-0.08287274092435837,"184":-0.14271435141563416,"185":-0.17118225991725922,"186":0.0030996277928352356,"187":0.01609289087355137,"188":0.03515474125742912,"189":-0.028478357940912247,"190":0.010907236486673355,"191":-0.03305637836456299,"192":-0.1338546872138977,"193":0.13047683238983154,"194":0.09397851675748825,"195":0.14634239673614502,"196":-0.19120171666145325,"197":-0.13364039361476898,"198":-0.045826707035303116,"199":-0.14056570827960968,"200":-0.15705330669879913,"201":-0.19138702750205994,"202":-0.12124446779489517,"203":-0.06358650326728821,"204":0.10721710324287415,"205":0.17974115908145905,"206":0.16297364234924316,"207":0.018982771784067154,"208":0.1557718962430954,"209":-0.05262221395969391,"210":-0.12774336338043213,"211":-0.1831551343202591,"212":-0.12129649519920349,"213":0.17743657529354095,"214":0.02976294979453087,"215":0.0950545221567154,"216":0.0750386044383049,"217":0.008278395980596542,"218":-0.12202825397253036,"219":0.004627333488315344,"220":-0.015085755847394466,"221":0.04030706360936165,"222":-0.055671799927949905,"223":0.02397109381854534,"224":0.007473151199519634}},"14":{"bias":0.13901273906230927,"weights":{"0":0.041453246027231216,"1":0.11149311810731888,"2":0.01966705732047558,"3":0.03324398398399353,"4":0.10762032866477966,"5":0.1959354728460312,"6":-0.018159518018364906,"7":0.13581582903862,"8":-0.08303747326135635,"9":-0.028116419911384583,"10":-0.11874894797801971,"11":0.002705042716115713,"12":0.18212486803531647,"13":0.1454411894083023,"14":-0.01614287495613098,"15":0.17512094974517822,"16":0.030453162267804146,"17":0.10188787430524826,"18":-0.024441713467240334,"19":0.07450776547193527,"20":-0.02093912661075592,"21":0.1302955150604248,"22":0.19407302141189575,"23":-0.037193380296230316,"24":0.012058592401444912,"25":-0.1330706626176834,"26":0.019022615626454353,"27":-0.012738979421555996,"28":-0.031056279316544533,"29":-0.13162364065647125,"30":0.1949247270822525,"31":0.04602443054318428,"32":0.05803912878036499,"33":-0.0009641514625400305,"34":0.06870107352733612,"35":-0.15784011781215668,"36":0.06841759383678436,"37":-0.11378049105405807,"38":0.18201403319835663,"39":0.04644512012600899,"40":0.12306704372167587,"41":-0.1857866793870926,"42":-0.1761508584022522,"43":0.17611464858055115,"44":0.03220007196068764,"45":-0.1950422078371048,"46":0.12790924310684204,"47":0.04708317294716835,"48":0.05031890794634819,"49":-0.06910340487957001,"50":-0.0015849517658352852,"51":-0.04844250902533531,"52":0.18927854299545288,"53":0.0377013199031353,"54":-0.16804705560207367,"55":0.04978261888027191,"56":0.18985754251480103,"57":-0.017565051093697548,"58":-0.023175369948148727,"59":-0.1516886204481125,"60":-0.07522997260093689,"61":-0.12706391513347626,"62":-0.12476032972335815,"63":-0.17038027942180634,"64":-0.18771900236606598,"65":0.18323127925395966,"66":0.08756214380264282,"67":-0.0940280482172966,"68":-0.11499684303998947,"69":0.029388446360826492,"70":-0.13099077343940735,"71":0.11279827356338501,"72":-0.1831035614013672,"73":0.0005332243163138628,"74":-0.18076682090759277,"75":0.05095530301332474,"76":-0.19540731608867645,"77":-0.045637521892786026,"78":0.00379154272377491,"79":-0.05811324715614319,"80":0.1694137305021286,"81":0.019445350393652916,"82":-0.08415191620588303,"83":-0.03931212052702904,"84":0.17428378760814667,"85":-0.17055805027484894,"86":-0.01298330444842577,"87":0.1504138708114624,"88":0.013352847658097744,"89":-0.08703115582466125,"90":-0.1849711537361145,"91":0.12478921562433243,"92":-0.18727301061153412,"93":-0.009702818468213081,"94":-0.0709078386425972,"95":-0.029034342616796494,"96":0.17221127450466156,"97":0.08401218801736832,"98":-0.012522070668637753,"99":0.04834534600377083,"100":0.05362316966056824,"101":-0.11116216331720352,"102":0.17722971737384796,"103":-0.20590420067310333,"104":-0.07433058321475983,"105":0.04573420435190201,"106":-0.18507692217826843,"107":0.044679686427116394,"108":-0.18824858963489532,"109":0.0817040428519249,"110":-0.1549031287431717,"111":0.18522049486637115,"112":-0.005244904663413763,"113":-0.0016653417842462659,"114":0.008323479443788528,"115":0.1536884754896164,"116":-0.09877888113260269,"117":-0.039519086480140686,"118":-0.17956361174583435,"119":-0.08619150519371033,"120":-0.0722966119647026,"121":-0.015875795856118202,"122":0.1874578297138214,"123":0.14537590742111206,"124":-0.06224049627780914,"125":-0.07802841067314148,"126":0.09650757163763046,"127":0.02110917493700981,"128":-0.08036602288484573,"129":0.06684570014476776,"130":0.05901012942194939,"131":-0.10412384569644928,"132":-0.17782001197338104,"133":-0.18443721532821655,"134":-0.18811625242233276,"135":-0.09284504503011703,"136":-0.11714840680360794,"137":-0.0899479016661644,"138":-0.05763242393732071,"139":0.20273596048355103,"140":0.0343312993645668,"141":0.16282570362091064,"142":0.05139416456222534,"143":-0.07231128960847855,"144":-0.10519646853208542,"145":0.15886573493480682,"146":-0.1524992436170578,"147":0.11148742586374283,"148":0.18223384022712708,"149":-0.06555388122797012,"150":0.15907908976078033,"151":0.13331595063209534,"152":-0.013306899927556515,"153":0.1986980438232422,"154":0.15763603150844574,"155":-0.03325800597667694,"156":-0.1646391749382019,"157":-0.09472522139549255,"158":-0.2098751813173294,"159":0.06850968301296234,"160":0.10296914726495743,"161":-0.1613328605890274,"162":0.10720093548297882,"163":-0.06631657481193542,"164":0.0390302874147892,"165":0.16469989717006683,"166":0.05491570383310318,"167":0.035226430743932724,"168":0.16544011235237122,"169":-0.17142824828624725,"170":-0.08189226686954498,"171":0.0848112627863884,"172":0.03789005056023598,"173":0.11920582503080368,"174":-0.018932845443487167,"175":-0.012314069084823132,"176":0.09258543699979782,"177":-0.04200917109847069,"178":0.12174282968044281,"179":-0.08603530377149582,"180":0.08615847676992416,"181":-0.1757817268371582,"182":0.02335864119231701,"183":-0.1213528960943222,"184":-0.09388692677021027,"185":-0.05405342951416969,"186":0.0322306789457798,"187":0.15389296412467957,"188":-0.196547731757164,"189":0.11672824621200562,"190":0.18160194158554077,"191":0.0034746478777378798,"192":0.0622401162981987,"193":0.1660819947719574,"194":0.19932688772678375,"195":0.18706466257572174,"196":-0.016027428209781647,"197":0.10799828916788101,"198":-0.06909976899623871,"199":-0.1419491469860077,"200":-0.15369799733161926,"201":0.035725075751543045,"202":-0.068526990711689,"203":0.01567298360168934,"204":0.11572952568531036,"205":0.04371093958616257,"206":-0.07501263171434402,"207":0.0415511280298233,"208":-0.03685842826962471,"209":-0.18537215888500214,"210":-0.11888259649276733,"211":-0.15535740554332733,"212":-0.09566834568977356,"213":0.12469237297773361,"214":0.11682077497243881,"215":0.055853065103292465,"216":0.16936424374580383,"217":0.045148078352212906,"218":0.06910061091184616,"219":0.1546602100133896,"220":-0.07869748771190643,"221":-0.15465770661830902,"222":-0.18671539425849915,"223":0.08677385747432709,"224":0.058334022760391235}},"15":{"bias":0.11991453170776367,"weights":{"0":0.1248449757695198,"1":0.16581399738788605,"2":0.17184565961360931,"3":0.07280620187520981,"4":-0.1585732251405716,"5":-0.12387049198150635,"6":-0.00860422570258379,"7":-0.09561290591955185,"8":0.07291639596223831,"9":0.08684126287698746,"10":0.06846755743026733,"11":0.11787070333957672,"12":-0.16043546795845032,"13":-0.08742859214544296,"14":-0.03792189434170723,"15":-0.082481749355793,"16":0.18491792678833008,"17":-0.11122439056634903,"18":0.004090084694325924,"19":-0.09320493042469025,"20":0.10287227481603622,"21":0.015540220774710178,"22":0.11050283908843994,"23":0.06214708834886551,"24":0.18942539393901825,"25":0.09340386092662811,"26":0.10561873763799667,"27":0.08265659213066101,"28":0.09557827562093735,"29":-0.14331607520580292,"30":0.09712114930152893,"31":-0.10919558256864548,"32":-0.007646838668733835,"33":0.18739670515060425,"34":0.17636695504188538,"35":-0.06296991556882858,"36":0.00789515022188425,"37":0.07259632647037506,"38":0.1322939395904541,"39":-0.1437223255634308,"40":0.10208932310342789,"41":-0.04513002932071686,"42":0.015353926457464695,"43":-0.1604692041873932,"44":-0.12495743483304977,"45":0.19028286635875702,"46":0.04530274122953415,"47":-0.057498615235090256,"48":-0.07133989781141281,"49":0.10815644264221191,"50":-0.043162211775779724,"51":0.16495175659656525,"52":0.09630098938941956,"53":0.10808418691158295,"54":0.08934210985898972,"55":-0.09283993393182755,"56":-0.08369757980108261,"57":-0.050048235803842545,"58":-0.06640796363353729,"59":-0.07049396634101868,"60":-0.05245688557624817,"61":-0.04240305721759796,"62":0.11014533042907715,"63":0.1740383356809616,"64":-0.0018123596673831344,"65":-0.0041719707660377026,"66":-0.13533847033977509,"67":-0.02663429081439972,"68":0.08093118667602539,"69":-0.012257245369255543,"70":0.1767696738243103,"71":-0.0793166235089302,"72":0.09516210854053497,"73":-0.03516889363527298,"74":-0.12052126228809357,"75":0.07101836055517197,"76":-0.15831777453422546,"77":0.0011272673727944493,"78":-0.1532439887523651,"79":-0.0993080884218216,"80":0.15712948143482208,"81":-0.06270530074834824,"82":0.019516799598932266,"83":0.08449515700340271,"84":-0.01842915639281273,"85":-0.18858686089515686,"86":-0.10355991125106812,"87":0.13082881271839142,"88":-0.09223932772874832,"89":0.03720661252737045,"90":-0.13140836358070374,"91":-0.08052030205726624,"92":0.018940113484859467,"93":-0.1774720549583435,"94":0.0853903517127037,"95":0.055192362517118454,"96":0.04449528828263283,"97":0.15574385225772858,"98":-0.1628582924604416,"99":-0.126714825630188,"100":-0.09029033780097961,"101":-0.01543710008263588,"102":-0.10419993847608566,"103":-0.05489271134138107,"104":-0.014809556305408478,"105":0.0038626035675406456,"106":0.07063352316617966,"107":-0.08127055317163467,"108":-0.031207280233502388,"109":-0.01677999272942543,"110":0.07345113158226013,"111":-0.048336684703826904,"112":0.085718534886837,"113":-0.014863863587379456,"114":0.13301892578601837,"115":0.0788654312491417,"116":0.13803339004516602,"117":-0.03476646915078163,"118":0.08004625886678696,"119":-0.1822531372308731,"120":0.14629781246185303,"121":0.06620924174785614,"122":-0.14491873979568481,"123":-0.075803741812706,"124":0.18126562237739563,"125":-0.08906363695859909,"126":-0.1699293553829193,"127":0.12304779887199402,"128":0.11311350762844086,"129":0.005650603212416172,"130":-0.033110957592725754,"131":-0.085427425801754,"132":-0.18466460704803467,"133":-0.1239398717880249,"134":0.18547925353050232,"135":0.025911061093211174,"136":-0.056469935923814774,"137":-0.1856871098279953,"138":0.12814240157604218,"139":-0.12810629606246948,"140":-0.059333186596632004,"141":-0.12905628979206085,"142":-0.06677969545125961,"143":0.10225392132997513,"144":-0.18825656175613403,"145":-0.10908946394920349,"146":0.16731970012187958,"147":-0.002436860930174589,"148":-0.19354265928268433,"149":0.1961403638124466,"150":-0.18354883790016174,"151":-0.1370311677455902,"152":0.05075579881668091,"153":-0.013757500797510147,"154":0.046220406889915466,"155":0.08665921539068222,"156":0.04607806354761124,"157":-0.07297541201114655,"158":-0.042732756584882736,"159":-0.12648260593414307,"160":-0.04461668059229851,"161":0.016295596957206726,"162":0.1994563788175583,"163":-0.08044736087322235,"164":0.030971389263868332,"165":0.06373445689678192,"166":0.12195398658514023,"167":-0.10013175010681152,"168":0.14320330321788788,"169":0.06654878705739975,"170":0.06552683562040329,"171":-0.1396770030260086,"172":-0.06250931322574615,"173":0.16740423440933228,"174":-0.038274362683296204,"175":-0.1721065193414688,"176":0.1937745213508606,"177":0.14772121608257294,"178":-0.08855808526277542,"179":0.03847498819231987,"180":0.11867013573646545,"181":-0.0822129026055336,"182":0.08655601739883423,"183":-0.02192319743335247,"184":0.16294938325881958,"185":0.042026977986097336,"186":0.13446898758411407,"187":0.1456274688243866,"188":-0.16845785081386566,"189":0.15540626645088196,"190":0.1695030927658081,"191":-0.13486331701278687,"192":0.13263535499572754,"193":-0.14843732118606567,"194":0.09138423204421997,"195":-0.11545690149068832,"196":-0.17401772737503052,"197":0.031805071979761124,"198":-0.06910696625709534,"199":0.0363076850771904,"200":0.1029796153306961,"201":-0.1694035530090332,"202":-0.04772564396262169,"203":-0.1665523797273636,"204":-0.09839600324630737,"205":-0.07488951832056046,"206":0.19284844398498535,"207":-0.020997675135731697,"208":-0.10953956842422485,"209":-0.02372797764837742,"210":-0.09750871360301971,"211":0.040682919323444366,"212":-0.04901767894625664,"213":0.17556209862232208,"214":0.16797368228435516,"215":0.11854423582553864,"216":0.13682827353477478,"217":0.0020579153206199408,"218":-0.00014013476902619004,"219":-0.0358317568898201,"220":-0.14107035100460052,"221":0.019440066069364548,"222":-0.06709089130163193,"223":0.1709490865468979,"224":-0.0479997918009758}},"16":{"bias":0.10771030187606812,"weights":{"0":0.06115022301673889,"1":-0.17886419594287872,"2":-0.034670937806367874,"3":-0.1194966658949852,"4":-0.148171067237854,"5":-0.18819479644298553,"6":-0.05760066583752632,"7":-0.08071732521057129,"8":-0.08009909093379974,"9":0.14645785093307495,"10":-0.07892003655433655,"11":0.0307924747467041,"12":0.1644965261220932,"13":-0.18073657155036926,"14":0.09273988753557205,"15":0.18168292939662933,"16":0.050759457051754,"17":-0.18645209074020386,"18":-0.14351804554462433,"19":0.11269411444664001,"20":0.032642338424921036,"21":-0.1562139391899109,"22":-0.18777009844779968,"23":-0.19294489920139313,"24":-0.0691765770316124,"25":-0.0065696160309016705,"26":-0.11592116206884384,"27":-0.11034151911735535,"28":-0.053397927433252335,"29":-0.10922487080097198,"30":0.10113285481929779,"31":-0.04792124778032303,"32":0.11806323379278183,"33":-0.132095605134964,"34":0.029005397111177444,"35":-0.14065784215927124,"36":-0.042979516088962555,"37":-0.05669950321316719,"38":-0.19009558856487274,"39":-0.03870096430182457,"40":0.11718197166919708,"41":0.12452083826065063,"42":0.07973669469356537,"43":0.02173123136162758,"44":-0.05683458223938942,"45":0.03435708209872246,"46":-0.01249333843588829,"47":-0.14127366244792938,"48":0.028506675735116005,"49":-0.17027896642684937,"50":0.011191967874765396,"51":0.13826234638690948,"52":0.1385924369096756,"53":0.16393031179904938,"54":-0.0797983705997467,"55":-0.10934034734964371,"56":-0.12891151010990143,"57":-0.16361400485038757,"58":0.05396927893161774,"59":0.012113295495510101,"60":0.12442054599523544,"61":0.18923023343086243,"62":0.016242682933807373,"63":-0.11304027587175369,"64":-0.15432293713092804,"65":0.15104663372039795,"66":0.05800577625632286,"67":-0.19832301139831543,"68":-0.1598302274942398,"69":0.05532115325331688,"70":0.1229076161980629,"71":-0.011199669912457466,"72":0.08374042809009552,"73":-0.013608094304800034,"74":-0.031521670520305634,"75":-0.04000866413116455,"76":-0.1106831431388855,"77":-0.10008034855127335,"78":-0.0988696962594986,"79":-0.02989913523197174,"80":0.025382110849022865,"81":0.01769312471151352,"82":-0.04271013289690018,"83":-0.18018454313278198,"84":0.011373285204172134,"85":0.039797376841306686,"86":-0.04156610369682312,"87":-0.1537589281797409,"88":-0.06207926943898201,"89":-0.16210445761680603,"90":0.047723572701215744,"91":-0.009094429202377796,"92":0.10955267399549484,"93":0.029991241171956062,"94":0.0663231611251831,"95":-0.12256693840026855,"96":0.10181082785129547,"97":-0.11533529311418533,"98":0.09711990505456924,"99":-0.05188511684536934,"100":-0.15701936185359955,"101":0.07744309306144714,"102":-0.15659849345684052,"103":-0.20692671835422516,"104":0.12179993838071823,"105":-0.053598854690790176,"106":0.10527113825082779,"107":0.024645252153277397,"108":-0.11321600526571274,"109":0.162992462515831,"110":0.07029665261507034,"111":0.14317744970321655,"112":-0.00525961397215724,"113":-0.15770667791366577,"114":0.1856999695301056,"115":0.041368626058101654,"116":0.1189812421798706,"117":0.15543456375598907,"118":0.03132609277963638,"119":0.0003810386697296053,"120":0.03300774097442627,"121":-0.15324224531650543,"122":0.11350512504577637,"123":-0.03419977426528931,"124":0.1688787192106247,"125":0.15952417254447937,"126":0.15901713073253632,"127":-0.19465479254722595,"128":-0.19460584223270416,"129":-0.1499173641204834,"130":0.1640760451555252,"131":0.06356754153966904,"132":-0.15634022653102875,"133":-0.0567932166159153,"134":-0.06692342460155487,"135":0.08458040654659271,"136":0.13524870574474335,"137":-0.11624276638031006,"138":-0.06235891208052635,